svm_type c_svc
kernel_type rbf
gamma 5.555555555555556E-4
nr_class 3
total_sv 1620
rho -0.2294190526008606 -1.016908058609734 -0.8492255529662597
label 0 1 2
nr_sv 600 600 420
SV
1.0 0.41465918387753353 5:0.9872005121364871 16:0.9872005121364871 41:0.9872005121364871 42:0.9872005121364871 53:0.9872005121364871 57:0.9872005121364871 61:0.9872005121364871 90:0.9872005121364871 92:0.9872005121364871 
1.0 0.3431159018435329 4:0.8611136595015755 5:0.8611136595015755 16:0.8611136595015755 84:0.8611136595015755 246:0.8611136595015755 1413:0.8611136595015755 1414:0.8611136595015755 
1.0 1.0 29:0.9872005121364871 71:0.9872005121364871 470:0.9872005121364871 471:0.9872005121364871 
1.0 0.638431898629091 5:0.8099117923325994 10:0.8099117923325994 51:0.8099117923325994 87:0.8099117923325994 318:0.8099117923325994 506:0.8099117923325994 1137:0.8099117923325994 1139:0.8099117923325994 1140:0.8099117923325994 1346:0.8099117923325994 1348:0.8099117923325994 
1.0 0.0 5:0.7188982499619246 10:0.7188982499619246 16:0.7188982499619246 51:0.7188982499619246 52:0.7188982499619246 57:0.7188982499619246 58:0.7188982499619246 61:0.7188982499619246 108:0.7188982499619246 135:0.7188982499619246 187:0.7188982499619246 219:0.7188982499619246 1388:0.7188982499619246 
1.0 1.0 2:0.7358158175199304 8:0.7358158175199304 10:0.7358158175199304 57:0.7358158175199304 61:0.7358158175199304 73:0.7358158175199304 222:0.7358158175199304 792:0.7358158175199304 796:0.7358158175199304 1392:0.7358158175199304 
1.0 1.0 22:0.8611136595015755 29:0.8611136595015755 73:0.8611136595015755 92:0.8611136595015755 113:0.8611136595015755 122:0.8611136595015755 128:0.8611136595015755 200:0.8611136595015755 
1.0 1.0 8:0.8429829203327237 166:0.8429829203327237 464:0.8429829203327237 526:0.8429829203327237 529:0.8429829203327237 748:0.8429829203327237 754:0.8429829203327237 
1.0 1.0 6:0.7358158175199304 23:0.7358158175199304 91:0.7358158175199304 104:0.7358158175199304 207:0.7358158175199304 283:0.7358158175199304 290:0.7358158175199304 370:0.7358158175199304 
1.0 1.0 29:1.8468830442312523 
1.0 0.0 2:1.0324390083482078 23:1.0324390083482078 28:1.0324390083482078 198:1.0324390083482078 238:1.0324390083482078 1763:1.0324390083482078 
1.0 1.0 2:0.766876443209602 92:0.766876443209602 208:0.766876443209602 222:0.766876443209602 1159:0.766876443209602 1161:0.766876443209602 
1.0 0.0 5:0.8804669446932559 40:0.8804669446932559 47:0.8804669446932559 57:0.8804669446932559 61:0.8804669446932559 196:0.8804669446932559 237:0.8804669446932559 366:0.8804669446932559 379:0.8804669446932559 1377:0.8804669446932559 
1.0 1.0 4:0.7603497164907803 10:0.7603497164907803 29:0.7603497164907803 101:0.7603497164907803 108:0.7603497164907803 191:0.7603497164907803 251:0.7603497164907803 478:0.7603497164907803 996:0.7603497164907803 999:0.7603497164907803 
1.0 0.6887300182575558 10:0.7030963587731984 29:0.7030963587731984 57:0.7030963587731984 61:0.7030963587731984 68:0.7030963587731984 108:0.7030963587731984 231:0.7030963587731984 1394:0.7030963587731984 1696:0.7030963587731984 1699:0.7030963587731984 
1.0 0.0 2:0.8906460914687613 54:0.8906460914687613 109:0.8906460914687613 1402:0.8906460914687613 1403:0.8906460914687613 
1.0 1.0 6:0.7947719191889441 178:0.7947719191889441 424:0.7947719191889441 439:0.7947719191889441 670:0.7947719191889441 671:0.7947719191889441 
1.0 1.0 2:0.8259512066785663 10:0.8259512066785663 21:0.8259512066785663 22:0.8259512066785663 62:0.8259512066785663 136:0.8259512066785663 
1.0 0.0 2:0.6980561765225426 4:0.6980561765225426 10:0.6980561765225426 108:0.6980561765225426 130:0.6980561765225426 158:0.6980561765225426 191:0.6980561765225426 251:0.6980561765225426 642:0.6980561765225426 684:0.6980561765225426 697:0.6980561765225426 
1.0 1.0 5:0.8429829203327237 10:0.8429829203327237 99:0.8429829203327237 119:0.8429829203327237 355:0.8429829203327237 689:0.8429829203327237 692:0.8429829203327237 703:0.8429829203327237 1651:0.8429829203327237 1708:0.8429829203327237 
1.0 1.0 5:0.7875135761102672 59:0.7875135761102672 1713:0.7875135761102672 1714:0.7875135761102672 
1.0 1.0 8:1.0489590814413852 11:1.0489590814413852 13:1.0489590814413852 59:1.0489590814413852 77:1.0489590814413852 107:1.0489590814413852 136:1.0489590814413852 789:1.0489590814413852 795:1.0489590814413852 1625:1.0489590814413852 
1.0 0.0 2:0.8178135579114016 62:0.8178135579114016 71:0.8178135579114016 120:0.8178135579114016 161:0.8178135579114016 211:0.8178135579114016 231:0.8178135579114016 
1.0 0.0 3:0.7735741812339244 5:0.7735741812339244 28:0.7735741812339244 59:0.7735741812339244 90:0.7735741812339244 91:0.7735741812339244 207:0.7735741812339244 453:0.7735741812339244 461:0.7735741812339244 
1.0 1.0 8:0.9872005121364871 16:0.9872005121364871 852:0.9872005121364871 855:0.9872005121364871 1678:0.9872005121364871 1679:0.9872005121364871 
1.0 1.0 2:0.780450531408999 75:0.780450531408999 911:0.780450531408999 1036:0.780450531408999 1040:0.780450531408999 
1.0 1.0 6:0.7358158175199304 7:0.7358158175199304 10:0.7358158175199304 17:0.7358158175199304 18:0.7358158175199304 133:0.7358158175199304 166:0.7358158175199304 
1.0 0.0 2:0.7947719191889441 54:0.7947719191889441 60:0.7947719191889441 88:0.7947719191889441 130:0.7947719191889441 144:0.7947719191889441 564:0.7947719191889441 574:0.7947719191889441 600:0.7947719191889441 1081:0.7947719191889441 1082:0.7947719191889441 1084:0.7947719191889441 1313:0.7947719191889441 1314:0.7947719191889441 1321:0.7947719191889441 1443:0.7947719191889441 1459:0.7947719191889441 1460:0.7947719191889441 1481:0.7947719191889441 1482:0.7947719191889441 
1.0 0.0 2:0.7735741812339244 10:0.7735741812339244 11:0.7735741812339244 13:0.7735741812339244 25:0.7735741812339244 43:0.7735741812339244 78:0.7735741812339244 130:0.7735741812339244 133:0.7735741812339244 158:0.7735741812339244 911:0.7735741812339244 1024:0.7735741812339244 1035:0.7735741812339244 1155:0.7735741812339244 1158:0.7735741812339244 
1.0 1.0 5:0.9733928319527098 
1.0 1.0 29:0.8429829203327237 58:0.8429829203327237 109:0.8429829203327237 126:0.8429829203327237 206:0.8429829203327237 325:0.8429829203327237 
1.0 1.0 2:0.9474310111071966 964:0.9474310111071966 969:0.9474310111071966 
1.0 1.0 8:0.8099117923325994 208:0.8099117923325994 305:0.8099117923325994 756:0.8099117923325994 760:0.8099117923325994 
1.0 1.0 5:1.0489590814413852 39:1.0489590814413852 81:1.0489590814413852 196:1.0489590814413852 1762:1.0489590814413852 1764:1.0489590814413852 
1.0 1.0 29:0.7539868454941039 113:0.7539868454941039 127:0.7539868454941039 156:0.7539868454941039 194:0.7539868454941039 220:0.7539868454941039 
1.0 1.0 5:0.8178135579114016 92:0.8178135579114016 100:0.8178135579114016 190:0.8178135579114016 197:0.8178135579114016 
1.0 1.0 8:0.8706290164229152 178:0.8706290164229152 419:0.8706290164229152 421:0.8706290164229152 823:0.8706290164229152 825:0.8706290164229152 911:0.8706290164229152 1049:0.8706290164229152 1052:0.8706290164229152 1338:0.8706290164229152 1339:0.8706290164229152 1768:0.8706290164229152 
1.0 1.0 6:0.8429829203327237 68:0.8429829203327237 365:0.8429829203327237 
1.0 1.0 2:1.0016129608064974 166:1.0016129608064974 1121:1.0016129608064974 1125:1.0016129608064974 1135:1.0016129608064974 
1.0 1.0 6:0.766876443209602 10:0.766876443209602 92:0.766876443209602 217:0.766876443209602 
1.0 1.0 7:0.7358158175199304 10:0.7358158175199304 19:0.7358158175199304 72:0.7358158175199304 235:0.7358158175199304 303:0.7358158175199304 358:0.7358158175199304 367:0.7358158175199304 369:0.7358158175199304 1194:0.7358158175199304 1195:0.7358158175199304 1636:0.7358158175199304 1637:0.7358158175199304 1794:0.7358158175199304 
1.0 1.0 2:0.7417260796744153 71:0.7417260796744153 164:0.7417260796744153 323:0.7417260796744153 
1.0 1.0 5:0.8022347300438142 1687:0.8022347300438142 1688:0.8022347300438142 1720:0.8022347300438142 1731:0.8022347300438142 1743:0.8022347300438142 1744:0.8022347300438142 
1.0 1.0 4:1.0662984227486692 29:1.0662984227486692 
1.0 0.0 2:1.08452706665146 47:1.08452706665146 57:1.08452706665146 58:1.08452706665146 61:1.08452706665146 96:1.08452706665146 312:1.08452706665146 1388:1.08452706665146 
1.0 1.0 6:0.7735741812339244 73:0.7735741812339244 116:0.7735741812339244 122:0.7735741812339244 124:0.7735741812339244 128:0.7735741812339244 149:0.7735741812339244 166:0.7735741812339244 329:0.7735741812339244 353:0.7735741812339244 613:0.7735741812339244 618:0.7735741812339244 620:0.7735741812339244 
1.0 1.0 5:0.9234415221156261 10:0.9234415221156261 1238:0.9234415221156261 1257:0.9234415221156261 1310:0.9234415221156261 
1.0 1.0 6:0.8178135579114016 47:0.8178135579114016 58:0.8178135579114016 96:0.8178135579114016 145:0.8178135579114016 242:0.8178135579114016 1329:0.8178135579114016 1330:0.8178135579114016 1331:0.8178135579114016 1367:0.8178135579114016 1370:0.8178135579114016 
1.0 1.0 8:1.4600892479290646 10:1.4600892479290646 838:1.4600892479290646 840:1.4600892479290646 
1.0 1.0 2:0.8343367131023226 29:0.8343367131023226 44:0.8343367131023226 83:0.8343367131023226 142:0.8343367131023226 1662:0.8343367131023226 1675:0.8343367131023226 1676:0.8343367131023226 1680:0.8343367131023226 1681:0.8343367131023226 
1.0 1.0 4:0.8022347300438142 7:0.8022347300438142 8:0.8022347300438142 10:0.8022347300438142 17:0.8022347300438142 18:0.8022347300438142 108:0.8022347300438142 161:0.8022347300438142 191:0.8022347300438142 853:0.8022347300438142 863:0.8022347300438142 952:0.8022347300438142 960:0.8022347300438142 
1.0 1.0 29:1.305943524634373 80:1.305943524634373 91:1.305943524634373 226:1.305943524634373 
1.0 1.0 5:0.7603497164907803 28:0.7603497164907803 169:0.7603497164907803 197:0.7603497164907803 284:0.7603497164907803 
1.0 1.0 21:0.8429829203327237 29:0.8429829203327237 71:0.8429829203327237 261:0.8429829203327237 1223:0.8429829203327237 1224:0.8429829203327237 
1.0 0.0 5:0.8022347300438142 54:0.8022347300438142 60:0.8022347300438142 88:0.8022347300438142 196:0.8022347300438142 230:0.8022347300438142 257:0.8022347300438142 400:0.8022347300438142 401:0.8022347300438142 565:0.8022347300438142 583:0.8022347300438142 585:0.8022347300438142 1528:0.8022347300438142 1540:0.8022347300438142 
1.0 0.0 7:0.7030963587731984 11:0.7030963587731984 13:0.7030963587731984 17:0.7030963587731984 18:0.7030963587731984 25:0.7030963587731984 29:0.7030963587731984 43:0.7030963587731984 51:0.7030963587731984 77:0.7030963587731984 107:0.7030963587731984 157:0.7030963587731984 183:0.7030963587731984 361:0.7030963587731984 
1.0 1.0 5:0.7947719191889441 23:0.7947719191889441 135:0.7947719191889441 167:0.7947719191889441 689:0.7947719191889441 690:0.7947719191889441 691:0.7947719191889441 1060:0.7947719191889441 1067:0.7947719191889441 
1.0 0.5792018687952929 2:0.7244071293737541 10:0.7244071293737541 167:0.7244071293737541 562:0.7244071293737541 563:0.7244071293737541 564:0.7244071293737541 624:0.7244071293737541 627:0.7244071293737541 629:0.7244071293737541 1072:0.7244071293737541 1077:0.7244071293737541 1217:0.7244071293737541 1222:0.7244071293737541 
1.0 0.0 5:0.7477810869136241 10:0.7477810869136241 73:0.7477810869136241 96:0.7477810869136241 149:0.7477810869136241 159:0.7477810869136241 200:0.7477810869136241 239:0.7477810869136241 
1.0 0.0 2:1.1037237262798956 7:1.1037237262798956 
1.0 1.0 5:0.8343367131023226 44:0.8343367131023226 87:0.8343367131023226 565:0.8343367131023226 568:0.8343367131023226 569:0.8343367131023226 973:0.8343367131023226 1226:0.8343367131023226 1595:0.8343367131023226 1596:0.8343367131023226 
1.0 1.0 6:1.1037237262798956 27:1.1037237262798956 109:1.1037237262798956 185:1.1037237262798956 447:1.1037237262798956 455:1.1037237262798956 458:1.1037237262798956 1598:1.1037237262798956 1599:1.1037237262798956 
1.0 1.0 5:0.8906460914687613 10:0.8906460914687613 1465:0.8906460914687613 1466:0.8906460914687613 
1.0 0.0 2:0.7603497164907803 11:0.7603497164907803 13:0.7603497164907803 25:0.7603497164907803 43:0.7603497164907803 54:0.7603497164907803 60:0.7603497164907803 75:0.7603497164907803 77:0.7603497164907803 78:0.7603497164907803 88:0.7603497164907803 107:0.7603497164907803 137:0.7603497164907803 141:0.7603497164907803 161:0.7603497164907803 171:0.7603497164907803 201:0.7603497164907803 1531:0.7603497164907803 1532:0.7603497164907803 
1.0 0.0 2:0.9601487749399159 10:0.9601487749399159 90:0.9601487749399159 
1.0 1.0 4:1.0166756550624372 6:1.0166756550624372 52:1.0166756550624372 207:1.0166756550624372 565:1.0166756550624372 598:1.0166756550624372 599:1.0166756550624372 
1.0 1.0 2:0.8099117923325994 120:0.8099117923325994 161:0.8099117923325994 545:0.8099117923325994 546:0.8099117923325994 634:0.8099117923325994 637:0.8099117923325994 640:0.8099117923325994 1489:0.8099117923325994 1490:0.8099117923325994 
1.0 1.0 5:0.9872005121364871 59:0.9872005121364871 105:0.9872005121364871 134:0.9872005121364871 
1.0 1.0 2:0.8706290164229152 399:0.8706290164229152 402:0.8706290164229152 
1.0 0.0 5:0.8611136595015755 10:0.8611136595015755 40:0.8611136595015755 51:0.8611136595015755 91:0.8611136595015755 108:0.8611136595015755 109:0.8611136595015755 180:0.8611136595015755 380:0.8611136595015755 
1.0 1.0 5:0.9234415221156261 92:0.9234415221156261 126:0.9234415221156261 317:0.9234415221156261 
1.0 1.0 4:0.8706290164229152 6:0.8706290164229152 9:0.8706290164229152 24:0.8706290164229152 27:0.8706290164229152 35:0.8706290164229152 58:0.8706290164229152 84:0.8706290164229152 145:0.8706290164229152 165:0.8706290164229152 246:0.8706290164229152 996:0.8706290164229152 1000:0.8706290164229152 1570:0.8706290164229152 1571:0.8706290164229152 
1.0 1.0 72:1.2744703809573492 
1.0 1.0 5:0.8178135579114016 57:0.8178135579114016 61:0.8178135579114016 92:0.8178135579114016 317:0.8178135579114016 489:0.8178135579114016 503:0.8178135579114016 1383:0.8178135579114016 1682:0.8178135579114016 
1.0 1.0 5:0.8429829203327237 54:0.8429829203327237 60:0.8429829203327237 88:0.8429829203327237 1431:0.8429829203327237 1434:0.8429829203327237 
1.0 0.0 2:0.8022347300438142 10:0.8022347300438142 22:0.8022347300438142 57:0.8022347300438142 61:0.8022347300438142 1325:0.8022347300438142 
1.0 1.0 7:0.7875135761102672 10:0.7875135761102672 19:0.7875135761102672 29:0.7875135761102672 99:0.7875135761102672 102:0.7875135761102672 103:0.7875135761102672 192:0.7875135761102672 355:0.7875135761102672 1451:0.7875135761102672 1456:0.7875135761102672 1458:0.7875135761102672 
1.0 1.0 3:0.8022347300438142 72:0.8022347300438142 89:0.8022347300438142 194:0.8022347300438142 366:0.8022347300438142 1706:0.8022347300438142 1723:0.8022347300438142 
1.0 0.43058279661011944 5:0.7735741812339244 57:0.7735741812339244 60:0.7735741812339244 61:0.7735741812339244 113:0.7735741812339244 208:0.7735741812339244 936:0.7735741812339244 937:0.7735741812339244 1328:0.7735741812339244 1398:0.7735741812339244 1399:0.7735741812339244 1401:0.7735741812339244 1577:0.7735741812339244 1691:0.7735741812339244 1692:0.7735741812339244 
1.0 0.0 5:0.7735741812339244 10:0.7735741812339244 11:0.7735741812339244 13:0.7735741812339244 25:0.7735741812339244 27:0.7735741812339244 43:0.7735741812339244 58:0.7735741812339244 145:0.7735741812339244 229:0.7735741812339244 253:0.7735741812339244 382:0.7735741812339244 407:0.7735741812339244 452:0.7735741812339244 1698:0.7735741812339244 1709:0.7735741812339244 
1.0 0.2450963796455013 5:0.8706290164229152 54:0.8706290164229152 59:0.8706290164229152 67:0.8706290164229152 90:0.8706290164229152 293:0.8706290164229152 1546:0.8706290164229152 1549:0.8706290164229152 
1.0 1.0 6:1.9467856639054195 
1.0 1.0 8:1.0166756550624372 127:1.0166756550624372 857:1.0166756550624372 863:1.0166756550624372 1356:1.0166756550624372 1357:1.0166756550624372 1366:1.0166756550624372 
1.0 1.0 8:1.1239772271102981 51:1.1239772271102981 209:1.1239772271102981 262:1.1239772271102981 625:1.1239772271102981 626:1.1239772271102981 631:1.1239772271102981 728:1.1239772271102981 765:1.1239772271102981 1566:1.1239772271102981 
1.0 1.0 8:0.8178135579114016 54:0.8178135579114016 390:0.8178135579114016 514:0.8178135579114016 517:0.8178135579114016 519:0.8178135579114016 524:0.8178135579114016 860:0.8178135579114016 861:0.8178135579114016 1544:0.8178135579114016 1548:0.8178135579114016 1745:0.8178135579114016 1746:0.8178135579114016 
1.0 0.0 2:0.8706290164229152 10:0.8706290164229152 99:0.8706290164229152 685:0.8706290164229152 686:0.8706290164229152 688:0.8706290164229152 1121:0.8706290164229152 1349:0.8706290164229152 1351:0.8706290164229152 
1.0 0.0 2:1.6198235846651987 80:1.6198235846651987 97:1.6198235846651987 
1.0 1.0 5:0.780450531408999 10:0.780450531408999 80:0.780450531408999 306:0.780450531408999 1179:0.780450531408999 1181:0.780450531408999 1290:0.780450531408999 1294:0.780450531408999 1304:0.780450531408999 
1.0 1.0 5:0.7188982499619246 7:0.7188982499619246 47:0.7188982499619246 108:0.7188982499619246 163:0.7188982499619246 911:0.7188982499619246 1022:0.7188982499619246 1023:0.7188982499619246 
1.0 0.0 2:1.0166756550624372 4:1.0166756550624372 71:1.0166756550624372 109:1.0166756550624372 172:1.0166756550624372 246:1.0166756550624372 
1.0 1.0 5:1.1921578787834162 96:1.1921578787834162 
1.0 1.0 5:0.8343367131023226 196:0.8343367131023226 234:0.8343367131023226 294:0.8343367131023226 330:0.8343367131023226 913:0.8343367131023226 923:0.8343367131023226 1151:0.8343367131023226 1162:0.8343367131023226 1163:0.8343367131023226 
1.0 0.0 2:0.8099117923325994 7:0.8099117923325994 10:0.8099117923325994 29:0.8099117923325994 603:0.8099117923325994 610:0.8099117923325994 621:0.8099117923325994 707:0.8099117923325994 710:0.8099117923325994 713:0.8099117923325994 
1.0 0.0 2:0.7875135761102672 7:0.7875135761102672 10:0.7875135761102672 16:0.7875135761102672 17:0.7875135761102672 18:0.7875135761102672 39:0.7875135761102672 44:0.7875135761102672 54:0.7875135761102672 83:0.7875135761102672 109:0.7875135761102672 129:0.7875135761102672 167:0.7875135761102672 179:0.7875135761102672 353:0.7875135761102672 1003:0.7875135761102672 1061:0.7875135761102672 1068:0.7875135761102672 1225:0.7875135761102672 1527:0.7875135761102672 1531:0.7875135761102672 1666:0.7875135761102672 
1.0 0.0 5:1.0489590814413852 10:1.0489590814413852 40:1.0489590814413852 58:1.0489590814413852 145:1.0489590814413852 219:1.0489590814413852 444:1.0489590814413852 446:1.0489590814413852 1410:1.0489590814413852 1438:1.0489590814413852 
1.0 1.0 8:0.8178135579114016 10:0.8178135579114016 40:0.8178135579114016 78:0.8178135579114016 91:0.8178135579114016 381:0.8178135579114016 389:0.8178135579114016 790:0.8178135579114016 795:0.8178135579114016 
1.0 1.0 5:1.0324390083482078 82:1.0324390083482078 116:1.0324390083482078 126:1.0324390083482078 565:1.0324390083482078 566:1.0324390083482078 567:1.0324390083482078 
1.0 0.0 2:0.8519036229413611 10:0.8519036229413611 47:0.8519036229413611 73:0.8519036229413611 133:0.8519036229413611 149:0.8519036229413611 200:0.8519036229413611 239:0.8519036229413611 
1.0 1.0 6:0.8259512066785663 10:0.8259512066785663 57:0.8259512066785663 61:0.8259512066785663 64:0.8259512066785663 286:0.8259512066785663 288:0.8259512066785663 289:0.8259512066785663 1385:0.8259512066785663 
1.0 0.0 2:1.0489590814413852 3:1.0489590814413852 10:1.0489590814413852 132:1.0489590814413852 
1.0 0.5836782448938093 5:0.7735741812339244 11:0.7735741812339244 25:0.7735741812339244 51:0.7735741812339244 93:0.7735741812339244 136:0.7735741812339244 361:0.7735741812339244 1625:0.7735741812339244 1628:0.7735741812339244 
1.0 1.0 28:0.8259512066785663 59:0.8259512066785663 72:0.8259512066785663 106:0.8259512066785663 303:0.8259512066785663 447:0.8259512066785663 1149:0.8259512066785663 1150:0.8259512066785663 1574:0.8259512066785663 1601:0.8259512066785663 
1.0 1.0 6:0.8611136595015755 10:0.8611136595015755 66:0.8611136595015755 73:0.8611136595015755 91:0.8611136595015755 149:0.8611136595015755 200:0.8611136595015755 209:0.8611136595015755 239:0.8611136595015755 1649:0.8611136595015755 
1.0 1.0 5:0.8343367131023226 10:0.8343367131023226 92:0.8343367131023226 317:0.8343367131023226 1686:0.8343367131023226 1689:0.8343367131023226 1742:0.8343367131023226 1756:0.8343367131023226 
1.0 1.0 6:0.780450531408999 10:0.780450531408999 62:0.780450531408999 911:0.780450531408999 1020:0.780450531408999 1021:0.780450531408999 1204:0.780450531408999 1600:0.780450531408999 1602:0.780450531408999 1716:0.780450531408999 1717:0.780450531408999 1741:0.780450531408999 1756:0.780450531408999 
1.0 1.0 5:0.766876443209602 92:0.766876443209602 213:0.766876443209602 214:0.766876443209602 294:0.766876443209602 981:0.766876443209602 993:0.766876443209602 
1.0 1.0 5:0.7735741812339244 109:0.7735741812339244 116:0.7735741812339244 127:0.7735741812339244 296:0.7735741812339244 329:0.7735741812339244 463:0.7735741812339244 523:0.7735741812339244 634:0.7735741812339244 637:0.7735741812339244 639:0.7735741812339244 
1.0 1.0 28:0.7539868454941039 29:0.7539868454941039 57:0.7539868454941039 61:0.7539868454941039 136:0.7539868454941039 366:0.7539868454941039 1394:0.7539868454941039 1632:0.7539868454941039 1633:0.7539868454941039 
1.0 1.0 2:0.7358158175199304 7:0.7358158175199304 119:0.7358158175199304 129:0.7358158175199304 359:0.7358158175199304 362:0.7358158175199304 1411:0.7358158175199304 1415:0.7358158175199304 1416:0.7358158175199304 
1.0 0.0 5:0.7947719191889441 7:0.7947719191889441 10:0.7947719191889441 17:0.7947719191889441 18:0.7947719191889441 
1.0 1.0 5:0.935205582646157 91:0.935205582646157 1663:0.935205582646157 1694:0.935205582646157 
1.0 1.0 6:0.8611136595015755 62:0.8611136595015755 
1.0 1.0 5:0.9011866487963441 58:0.9011866487963441 91:0.9011866487963441 144:0.9011866487963441 145:0.9011866487963441 1153:0.9011866487963441 1154:0.9011866487963441 
1.0 1.0 6:0.8343367131023226 633:0.8343367131023226 635:0.8343367131023226 636:0.8343367131023226 
1.0 0.11005787244609536 4:0.7603497164907803 5:0.7603497164907803 10:0.7603497164907803 52:0.7603497164907803 130:0.7603497164907803 158:0.7603497164907803 159:0.7603497164907803 217:0.7603497164907803 1146:0.7603497164907803 1151:0.7603497164907803 1162:0.7603497164907803 
1.0 1.0 2:0.9474310111071966 29:0.9474310111071966 208:0.9474310111071966 230:0.9474310111071966 332:0.9474310111071966 
1.0 0.0 5:0.7188982499619246 10:0.7188982499619246 109:0.7188982499619246 133:0.7188982499619246 135:0.7188982499619246 261:0.7188982499619246 1477:0.7188982499619246 1479:0.7188982499619246 1622:0.7188982499619246 1736:0.7188982499619246 
1.0 1.0 5:0.9733928319527098 122:0.9733928319527098 
1.0 0.0 2:0.8706290164229152 28:0.8706290164229152 39:0.8706290164229152 51:0.8706290164229152 71:0.8706290164229152 147:0.8706290164229152 1232:0.8706290164229152 1234:0.8706290164229152 1665:0.8706290164229152 1693:0.8706290164229152 
1.0 1.0 2:0.8259512066785663 5:0.8259512066785663 7:0.8259512066785663 8:0.8259512066785663 10:0.8259512066785663 330:0.8259512066785663 859:0.8259512066785663 862:0.8259512066785663 894:0.8259512066785663 895:0.8259512066785663 
1.0 1.0 2:0.8178135579114016 106:0.8178135579114016 706:0.8178135579114016 708:0.8178135579114016 709:0.8178135579114016 1718:0.8178135579114016 1719:0.8178135579114016 
1.0 1.0 2:0.8022347300438142 29:0.8022347300438142 54:0.8022347300438142 60:0.8022347300438142 75:0.8022347300438142 88:0.8022347300438142 112:0.8022347300438142 122:0.8022347300438142 130:0.8022347300438142 158:0.8022347300438142 216:0.8022347300438142 509:0.8022347300438142 510:0.8022347300438142 1529:0.8022347300438142 1530:0.8022347300438142 
1.0 0.0 4:1.2177986160118555 5:1.2177986160118555 7:1.2177986160118555 17:1.2177986160118555 18:1.2177986160118555 
1.0 1.0 6:0.7947719191889441 1734:0.7947719191889441 1735:0.7947719191889441 
1.0 1.0 29:0.9121105221687505 
1.0 1.0 72:1.6198235846651987 253:1.6198235846651987 1144:1.6198235846651987 1147:1.6198235846651987 
1.0 1.0 5:0.7875135761102672 21:0.7875135761102672 135:0.7875135761102672 311:0.7875135761102672 645:0.7875135761102672 652:0.7875135761102672 653:0.7875135761102672 911:0.7875135761102672 1050:0.7875135761102672 1051:0.7875135761102672 1218:0.7875135761102672 1221:0.7875135761102672 1312:0.7875135761102672 1453:0.7875135761102672 1454:0.7875135761102672 
1.0 1.0 29:0.9234415221156261 40:0.9234415221156261 66:0.9234415221156261 91:0.9234415221156261 198:0.9234415221156261 212:0.9234415221156261 444:0.9234415221156261 450:0.9234415221156261 887:0.9234415221156261 1371:0.9234415221156261 1373:0.9234415221156261 1643:0.9234415221156261 1763:0.9234415221156261 1775:0.9234415221156261 
1.0 0.0 2:0.9601487749399159 54:0.9601487749399159 60:0.9601487749399159 88:0.9601487749399159 1404:0.9601487749399159 1418:0.9601487749399159 1525:0.9601487749399159 1540:0.9601487749399159 
1.0 1.0 10:0.7477810869136241 72:0.7477810869136241 80:0.7477810869136241 96:0.7477810869136241 226:0.7477810869136241 
1.0 1.0 23:1.1680713983432516 27:1.1680713983432516 28:1.1680713983432516 29:1.1680713983432516 147:1.1680713983432516 
1.0 1.0 6:1.1037237262798956 39:1.1037237262798956 44:1.1037237262798956 54:1.1037237262798956 60:1.1037237262798956 83:1.1037237262798956 88:1.1037237262798956 208:1.1037237262798956 1556:1.1037237262798956 1561:1.1037237262798956 1668:1.1037237262798956 
1.0 0.0 5:0.8906460914687613 10:0.8906460914687613 16:0.8906460914687613 57:0.8906460914687613 61:0.8906460914687613 178:0.8906460914687613 420:0.8906460914687613 428:0.8906460914687613 959:0.8906460914687613 1376:0.8906460914687613 
1.0 1.0 29:0.766876443209602 157:0.766876443209602 1504:0.766876443209602 1505:0.766876443209602 1512:0.766876443209602 
1.0 0.0 2:0.7875135761102672 11:0.7875135761102672 13:0.7875135761102672 23:0.7875135761102672 25:0.7875135761102672 43:0.7875135761102672 71:0.7875135761102672 104:0.7875135761102672 136:0.7875135761102672 210:0.7875135761102672 466:0.7875135761102672 467:0.7875135761102672 1619:0.7875135761102672 1625:0.7875135761102672 
1.0 0.0 2:2.0648780166964156 122:2.0648780166964156 
1.0 0.0 5:0.8906460914687613 10:0.8906460914687613 28:0.8906460914687613 47:0.8906460914687613 62:0.8906460914687613 71:0.8906460914687613 217:0.8906460914687613 
1.0 0.0 2:1.0324390083482078 40:1.0324390083482078 66:1.0324390083482078 91:1.0324390083482078 180:1.0324390083482078 386:1.0324390083482078 1646:1.0324390083482078 
1.0 0.0 2:1.6198235846651987 54:1.6198235846651987 60:1.6198235846651987 88:1.6198235846651987 673:1.6198235846651987 679:1.6198235846651987 
1.0 0.0 5:0.9234415221156261 47:0.9234415221156261 66:0.9234415221156261 90:0.9234415221156261 91:0.9234415221156261 212:0.9234415221156261 252:0.9234415221156261 293:0.9234415221156261 1439:0.9234415221156261 1440:0.9234415221156261 1617:0.9234415221156261 
1.0 0.0 2:0.8611136595015755 54:0.8611136595015755 60:0.8611136595015755 88:0.8611136595015755 120:0.8611136595015755 234:0.8611136595015755 356:0.8611136595015755 1552:0.8611136595015755 1553:0.8611136595015755 
1.0 1.0 2:0.8906460914687613 96:0.8906460914687613 142:0.8906460914687613 260:0.8906460914687613 
1.0 1.0 5:0.766876443209602 10:0.766876443209602 136:0.766876443209602 192:0.766876443209602 205:0.766876443209602 1473:0.766876443209602 1475:0.766876443209602 1625:0.766876443209602 
1.0 1.0 5:1.1680713983432516 
1.0 1.0 2:0.9234415221156261 1057:0.9234415221156261 1058:0.9234415221156261 
1.0 1.0 29:1.0489590814413852 58:1.0489590814413852 494:1.0489590814413852 497:1.0489590814413852 
1.0 1.0 6:0.8519036229413611 70:0.8519036229413611 109:0.8519036229413611 948:0.8519036229413611 949:0.8519036229413611 
1.0 0.22805488708174057 7:0.8099117923325994 8:0.8099117923325994 10:0.8099117923325994 17:0.8099117923325994 18:0.8099117923325994 40:0.8099117923325994 51:0.8099117923325994 58:0.8099117923325994 68:0.8099117923325994 115:0.8099117923325994 148:0.8099117923325994 162:0.8099117923325994 237:0.8099117923325994 248:0.8099117923325994 384:0.8099117923325994 429:0.8099117923325994 433:0.8099117923325994 884:0.8099117923325994 885:0.8099117923325994 
1.0 1.0 29:1.0324390083482078 70:1.0324390083482078 109:1.0324390083482078 123:1.0324390083482078 195:1.0324390083482078 830:1.0324390083482078 836:1.0324390083482078 
1.0 0.0 2:0.8099117923325994 10:0.8099117923325994 23:0.8099117923325994 39:0.8099117923325994 106:0.8099117923325994 
1.0 1.0 5:0.935205582646157 20:0.935205582646157 27:0.935205582646157 168:0.935205582646157 1103:0.935205582646157 1638:0.935205582646157 1639:0.935205582646157 
1.0 1.0 2:1.1680713983432516 169:1.1680713983432516 1349:1.1680713983432516 1352:1.1680713983432516 
1.0 1.0 7:0.780450531408999 10:0.780450531408999 17:0.780450531408999 18:0.780450531408999 29:0.780450531408999 1069:0.780450531408999 1172:0.780450531408999 
1.0 1.0 5:0.8259512066785663 473:0.8259512066785663 474:0.8259512066785663 615:0.8259512066785663 616:0.8259512066785663 723:0.8259512066785663 
1.0 0.0 2:1.0016129608064974 39:1.0016129608064974 44:1.0016129608064974 83:1.0016129608064974 1664:1.0016129608064974 
1.0 1.0 2:0.8343367131023226 4:0.8343367131023226 29:0.8343367131023226 108:0.8343367131023226 191:0.8343367131023226 192:0.8343367131023226 251:0.8343367131023226 293:0.8343367131023226 
1.0 1.0 5:0.7875135761102672 55:0.7875135761102672 70:0.7875135761102672 
1.0 1.0 5:0.7735741812339244 16:0.7735741812339244 51:0.7735741812339244 127:0.7735741812339244 306:0.7735741812339244 361:0.7735741812339244 1176:0.7735741812339244 1178:0.7735741812339244 
1.0 0.0 4:0.766876443209602 5:0.766876443209602 10:0.766876443209602 16:0.766876443209602 23:0.766876443209602 75:0.766876443209602 359:0.766876443209602 362:0.766876443209602 
1.0 1.0 5:0.8022347300438142 54:0.8022347300438142 60:0.8022347300438142 71:0.8022347300438142 88:0.8022347300438142 943:0.8022347300438142 946:0.8022347300438142 1404:0.8022347300438142 1405:0.8022347300438142 
1.0 1.0 8:0.766876443209602 10:0.766876443209602 229:0.766876443209602 305:0.766876443209602 311:0.766876443209602 359:0.766876443209602 362:0.766876443209602 788:0.766876443209602 791:0.766876443209602 925:0.766876443209602 927:0.766876443209602 928:0.766876443209602 1196:0.766876443209602 1201:0.766876443209602 1723:0.766876443209602 1725:0.766876443209602 
1.0 1.0 6:0.70824731671061 7:0.70824731671061 10:0.70824731671061 27:0.70824731671061 102:0.70824731671061 103:0.70824731671061 115:0.70824731671061 137:0.70824731671061 157:0.70824731671061 162:0.70824731671061 248:0.70824731671061 296:0.70824731671061 1797:0.70824731671061 1799:0.70824731671061 
1.0 0.9078610306472925 2:0.7603497164907803 9:0.7603497164907803 28:0.7603497164907803 51:0.7603497164907803 82:0.7603497164907803 285:0.7603497164907803 1038:0.7603497164907803 1039:0.7603497164907803 1041:0.7603497164907803 
1.0 1.0 8:0.9733928319527098 10:0.9733928319527098 64:0.9733928319527098 81:0.9733928319527098 802:0.9733928319527098 804:0.9733928319527098 
1.0 1.0 2:1.0489590814413852 120:1.0489590814413852 1608:1.0489590814413852 1620:1.0489590814413852 
1.0 1.0 5:1.560901062817998 
1.0 1.0 5:0.8343367131023226 29:0.8343367131023226 54:0.8343367131023226 206:0.8343367131023226 238:0.8343367131023226 397:0.8343367131023226 404:0.8343367131023226 539:0.8343367131023226 548:0.8343367131023226 555:0.8343367131023226 1432:0.8343367131023226 1433:0.8343367131023226 
1.0 0.0 5:0.780450531408999 10:0.780450531408999 16:0.780450531408999 21:0.780450531408999 40:0.780450531408999 67:0.780450531408999 91:0.780450531408999 179:0.780450531408999 180:0.780450531408999 321:0.780450531408999 388:0.780450531408999 1335:0.780450531408999 1336:0.780450531408999 1707:0.780450531408999 1711:0.780450531408999 
1.0 1.0 2:1.5079736909882078 81:1.5079736909882078 
1.0 1.0 29:1.0489590814413852 144:1.0489590814413852 
1.0 1.0 4:0.9234415221156261 11:0.9234415221156261 29:0.9234415221156261 185:0.9234415221156261 1232:0.9234415221156261 1233:0.9234415221156261 
1.0 1.0 6:0.7477810869136241 10:0.7477810869136241 28:0.7477810869136241 73:0.7477810869136241 75:0.7477810869136241 287:0.7477810869136241 405:0.7477810869136241 413:0.7477810869136241 960:0.7477810869136241 1589:0.7477810869136241 1592:0.7477810869136241 
1.0 0.0 2:0.7875135761102672 90:0.7875135761102672 133:0.7875135761102672 135:0.7875135761102672 
1.0 1.0 6:0.7417260796744153 10:0.7417260796744153 67:0.7417260796744153 68:0.7417260796744153 70:0.7417260796744153 167:0.7417260796744153 479:0.7417260796744153 542:0.7417260796744153 544:0.7417260796744153 1059:0.7417260796744153 
1.0 1.0 5:0.8611136595015755 844:0.8611136595015755 845:0.8611136595015755 899:0.8611136595015755 911:0.8611136595015755 972:0.8611136595015755 1100:0.8611136595015755 1101:0.8611136595015755 1129:0.8611136595015755 1652:0.8611136595015755 1674:0.8611136595015755 1677:0.8611136595015755 
1.0 1.0 5:0.8519036229413611 62:0.8519036229413611 96:0.8519036229413611 301:0.8519036229413611 469:0.8519036229413611 472:0.8519036229413611 481:0.8519036229413611 
1.0 0.0 2:0.9011866487963441 10:0.9011866487963441 54:0.9011866487963441 107:0.9011866487963441 209:0.9011866487963441 252:0.9011866487963441 1195:0.9011866487963441 1555:0.9011866487963441 1566:0.9011866487963441 1766:0.9011866487963441 1767:0.9011866487963441 
1.0 1.0 6:0.8343367131023226 59:0.8343367131023226 921:0.8343367131023226 926:0.8343367131023226 1145:0.8343367131023226 1152:0.8343367131023226 1574:0.8343367131023226 1588:0.8343367131023226 
1.0 0.1335132142891684 5:0.7477810869136241 23:0.7477810869136241 66:0.7477810869136241 91:0.7477810869136241 104:0.7477810869136241 210:0.7477810869136241 212:0.7477810869136241 442:0.7477810869136241 443:0.7477810869136241 451:0.7477810869136241 1643:0.7477810869136241 1707:0.7477810869136241 1710:0.7477810869136241 1763:0.7477810869136241 1778:0.7477810869136241 
1.0 1.0 5:0.7875135761102672 10:0.7875135761102672 68:0.7875135761102672 92:0.7875135761102672 111:0.7875135761102672 667:0.7875135761102672 668:0.7875135761102672 
1.0 1.0 2:0.8022347300438142 29:0.8022347300438142 127:0.8022347300438142 194:0.8022347300438142 1133:0.8022347300438142 1138:0.8022347300438142 
1.0 0.0 2:0.935205582646157 11:0.935205582646157 13:0.935205582646157 25:0.935205582646157 43:0.935205582646157 51:0.935205582646157 70:0.935205582646157 71:0.935205582646157 108:0.935205582646157 361:0.935205582646157 
1.0 0.3006743122731378 2:0.766876443209602 21:0.766876443209602 40:0.766876443209602 44:0.766876443209602 91:0.766876443209602 159:0.766876443209602 180:0.766876443209602 252:0.766876443209602 385:0.766876443209602 564:0.766876443209602 578:0.766876443209602 579:0.766876443209602 1197:0.766876443209602 
1.0 1.0 4:0.7735741812339244 6:0.7735741812339244 28:0.7735741812339244 57:0.7735741812339244 61:0.7735741812339244 78:0.7735741812339244 287:0.7735741812339244 1386:0.7735741812339244 1763:0.7735741812339244 1776:0.7735741812339244 
1.0 1.0 8:0.7875135761102672 10:0.7875135761102672 135:0.7875135761102672 231:0.7875135761102672 839:0.7875135761102672 841:0.7875135761102672 
1.0 1.0 29:0.8611136595015755 126:0.8611136595015755 1210:0.8611136595015755 1211:0.8611136595015755 1578:0.8611136595015755 1581:0.8611136595015755 
1.0 1.0 7:0.8804669446932559 8:0.8804669446932559 10:0.8804669446932559 17:0.8804669446932559 18:0.8804669446932559 192:0.8804669446932559 846:0.8804669446932559 847:0.8804669446932559 1756:0.8804669446932559 
1.0 0.0 5:0.8611136595015755 7:0.8611136595015755 10:0.8611136595015755 22:0.8611136595015755 68:0.8611136595015755 102:0.8611136595015755 103:0.8611136595015755 
1.0 0.0 4:0.8429829203327237 5:0.8429829203327237 66:0.8429829203327237 84:0.8429829203327237 91:0.8429829203327237 92:0.8429829203327237 159:0.8429829203327237 207:0.8429829203327237 368:0.8429829203327237 417:0.8429829203327237 445:0.8429829203327237 451:0.8429829203327237 1645:0.8429829203327237 
1.0 0.0 2:0.7539868454941039 7:0.7539868454941039 67:0.7539868454941039 142:0.7539868454941039 178:0.7539868454941039 425:0.7539868454941039 564:0.7539868454941039 573:0.7539868454941039 576:0.7539868454941039 
1.0 0.0 7:0.7603497164907803 8:0.7603497164907803 10:0.7603497164907803 17:0.7603497164907803 18:0.7603497164907803 28:0.7603497164907803 92:0.7603497164907803 115:0.7603497164907803 123:0.7603497164907803 135:0.7603497164907803 147:0.7603497164907803 148:0.7603497164907803 162:0.7603497164907803 164:0.7603497164907803 185:0.7603497164907803 195:0.7603497164907803 248:0.7603497164907803 323:0.7603497164907803 737:0.7603497164907803 739:0.7603497164907803 829:0.7603497164907803 836:0.7603497164907803 
1.0 1.0 2:0.7875135761102672 21:0.7875135761102672 166:0.7875135761102672 169:0.7875135761102672 312:0.7875135761102672 321:0.7875135761102672 951:0.7875135761102672 955:0.7875135761102672 
1.0 1.0 5:0.7539868454941039 57:0.7539868454941039 61:0.7539868454941039 366:0.7539868454941039 
1.0 0.0 2:0.7735741812339244 4:0.7735741812339244 10:0.7735741812339244 40:0.7735741812339244 84:0.7735741812339244 113:0.7735741812339244 188:0.7735741812339244 237:0.7735741812339244 383:0.7735741812339244 538:0.7735741812339244 540:0.7735741812339244 
1.0 1.0 6:0.8519036229413611 16:0.8519036229413611 129:0.8519036229413611 198:0.8519036229413611 300:0.8519036229413611 1763:0.8519036229413611 1771:0.8519036229413611 
1.0 0.0 2:0.7875135761102672 41:0.7875135761102672 42:0.7875135761102672 57:0.7875135761102672 61:0.7875135761102672 301:0.7875135761102672 556:0.7875135761102672 565:0.7875135761102672 582:0.7875135761102672 592:0.7875135761102672 1759:0.7875135761102672 1760:0.7875135761102672 
1.0 1.0 5:0.7477810869136241 106:0.7477810869136241 124:0.7477810869136241 192:0.7477810869136241 231:0.7477810869136241 
1.0 1.0 5:0.8429829203327237 106:0.8429829203327237 142:0.8429829203327237 253:0.8429829203327237 1212:0.8429829203327237 1213:0.8429829203327237 1700:0.8429829203327237 1702:0.8429829203327237 
1.0 1.0 5:0.935205582646157 57:0.935205582646157 61:0.935205582646157 1391:0.935205582646157 
1.0 0.0 2:0.766876443209602 28:0.766876443209602 59:0.766876443209602 71:0.766876443209602 135:0.766876443209602 147:0.766876443209602 172:0.766876443209602 1164:0.766876443209602 1183:0.766876443209602 1184:0.766876443209602 
1.0 1.0 2:1.1680713983432516 1763:1.1680713983432516 
1.0 1.0 6:1.0324390083482078 
1.0 0.0 5:0.9601487749399159 54:0.9601487749399159 57:0.9601487749399159 61:0.9601487749399159 294:0.9601487749399159 565:0.9601487749399159 594:0.9601487749399159 595:0.9601487749399159 1390:0.9601487749399159 1404:0.9601487749399159 1417:0.9601487749399159 1603:0.9601487749399159 1605:0.9601487749399159 
1.0 1.0 2:0.8429829203327237 91:0.8429829203327237 193:0.8429829203327237 1244:0.8429829203327237 1245:0.8429829203327237 
1.0 1.0 29:1.1680713983432516 62:1.1680713983432516 122:1.1680713983432516 126:1.1680713983432516 128:1.1680713983432516 325:1.1680713983432516 
1.0 1.0 2:1.1921578787834162 
1.0 1.0 6:0.766876443209602 39:0.766876443209602 166:0.766876443209602 301:0.766876443209602 
1.0 0.0 2:1.0324390083482078 10:1.0324390083482078 27:1.0324390083482078 62:1.0324390083482078 1703:1.0324390083482078 1715:1.0324390083482078 
1.0 1.0 11:0.8611136595015755 25:0.8611136595015755 29:0.8611136595015755 87:0.8611136595015755 135:0.8611136595015755 210:0.8611136595015755 262:0.8611136595015755 354:0.8611136595015755 
1.0 1.0 8:0.780450531408999 10:0.780450531408999 71:0.780450531408999 75:0.780450531408999 822:0.780450531408999 824:0.780450531408999 898:0.780450531408999 902:0.780450531408999 907:0.780450531408999 1206:0.780450531408999 1214:0.780450531408999 
1.0 0.0 2:0.7947719191889441 10:0.7947719191889441 54:0.7947719191889441 91:0.7947719191889441 304:0.7947719191889441 516:0.7947719191889441 525:0.7947719191889441 535:0.7947719191889441 911:0.7947719191889441 984:0.7947719191889441 1026:0.7947719191889441 1027:0.7947719191889441 1029:0.7947719191889441 
1.0 0.0 4:0.766876443209602 5:0.766876443209602 7:0.766876443209602 10:0.766876443209602 16:0.766876443209602 58:0.766876443209602 102:0.766876443209602 103:0.766876443209602 
1.0 1.0 5:0.8429829203327237 52:0.8429829203327237 71:0.8429829203327237 198:0.8429829203327237 365:0.8429829203327237 485:0.8429829203327237 486:0.8429829203327237 1763:0.8429829203327237 1773:0.8429829203327237 1795:0.8429829203327237 1800:0.8429829203327237 
1.0 1.0 5:0.7603497164907803 62:0.7603497164907803 166:0.7603497164907803 253:0.7603497164907803 1156:0.7603497164907803 1157:0.7603497164907803 1408:0.7603497164907803 1510:0.7603497164907803 1511:0.7603497164907803 1574:0.7603497164907803 1586:0.7603497164907803 1653:0.7603497164907803 1654:0.7603497164907803 
1.0 1.0 5:0.8519036229413611 70:0.8519036229413611 210:0.8519036229413611 
1.0 1.0 4:0.8611136595015755 8:0.8611136595015755 40:0.8611136595015755 58:0.8611136595015755 90:0.8611136595015755 116:0.8611136595015755 145:0.8611136595015755 198:0.8611136595015755 218:0.8611136595015755 444:0.8611136595015755 450:0.8611136595015755 808:0.8611136595015755 811:0.8611136595015755 1763:0.8611136595015755 1774:0.8611136595015755 
1.0 0.7165026600781523 5:0.7947719191889441 16:0.7947719191889441 21:0.7947719191889441 58:0.7947719191889441 73:0.7947719191889441 78:0.7947719191889441 145:0.7947719191889441 1121:0.7947719191889441 1134:0.7947719191889441 1136:0.7947719191889441 
1.0 1.0 6:0.8519036229413611 16:0.8519036229413611 129:0.8519036229413611 300:0.8519036229413611 432:0.8519036229413611 435:0.8519036229413611 436:0.8519036229413611 
1.0 0.0 2:0.7358158175199304 7:0.7358158175199304 10:0.7358158175199304 11:0.7358158175199304 13:0.7358158175199304 23:0.7358158175199304 25:0.7358158175199304 43:0.7358158175199304 62:0.7358158175199304 77:0.7358158175199304 104:0.7358158175199304 107:0.7358158175199304 112:0.7358158175199304 164:0.7358158175199304 283:0.7358158175199304 290:0.7358158175199304 358:0.7358158175199304 367:0.7358158175199304 369:0.7358158175199304 370:0.7358158175199304 
1.0 0.0 2:0.8519036229413611 10:0.8519036229413611 51:0.8519036229413611 108:0.8519036229413611 164:0.8519036229413611 995:0.8519036229413611 998:0.8519036229413611 
1.0 1.0 2:1.6859658406654474 
1.0 1.0 6:0.8178135579114016 66:0.8178135579114016 91:0.8178135579114016 178:0.8178135579114016 212:0.8178135579114016 430:0.8178135579114016 438:0.8178135579114016 493:0.8178135579114016 495:0.8178135579114016 699:0.8178135579114016 701:0.8178135579114016 911:0.8178135579114016 1019:0.8178135579114016 1024:0.8178135579114016 1629:0.8178135579114016 
1.0 1.0 29:1.0016129608064974 422:1.0016129608064974 426:1.0016129608064974 440:1.0016129608064974 1039:1.0016129608064974 1042:1.0016129608064974 1043:1.0016129608064974 
1.0 1.0 5:0.8178135579114016 513:0.8178135579114016 537:0.8178135579114016 
1.0 0.0 2:0.8706290164229152 4:0.8706290164229152 28:0.8706290164229152 108:0.8706290164229152 109:0.8706290164229152 185:0.8706290164229152 191:0.8706290164229152 251:0.8706290164229152 
1.0 0.0 2:0.8178135579114016 4:0.8178135579114016 7:0.8178135579114016 10:0.8178135579114016 17:0.8178135579114016 18:0.8178135579114016 62:0.8178135579114016 84:0.8178135579114016 211:0.8178135579114016 310:0.8178135579114016 315:0.8178135579114016 1319:0.8178135579114016 1320:0.8178135579114016 1332:0.8178135579114016 
1.0 1.0 8:0.7603497164907803 28:0.7603497164907803 112:0.7603497164907803 136:0.7603497164907803 147:0.7603497164907803 175:0.7603497164907803 192:0.7603497164907803 229:0.7603497164907803 245:0.7603497164907803 755:0.7603497164907803 756:0.7603497164907803 1797:0.7603497164907803 1798:0.7603497164907803 
1.0 1.0 7:0.7735741812339244 29:0.7735741812339244 172:0.7735741812339244 
1.0 1.0 6:1.1037237262798956 10:1.1037237262798956 1756:1.1037237262798956 1757:1.1037237262798956 
1.0 1.0 29:0.7875135761102672 54:0.7875135761102672 71:0.7875135761102672 135:0.7875135761102672 1306:0.7875135761102672 1308:0.7875135761102672 1309:0.7875135761102672 1425:0.7875135761102672 1426:0.7875135761102672 
1.0 0.902791745183544 2:0.8099117923325994 68:0.8099117923325994 541:0.8099117923325994 543:0.8099117923325994 628:0.8099117923325994 634:0.8099117923325994 638:0.8099117923325994 1232:0.8099117923325994 1235:0.8099117923325994 1271:0.8099117923325994 1272:0.8099117923325994 1274:0.8099117923325994 1275:0.8099117923325994 
1.0 0.0 5:1.0324390083482078 10:1.0324390083482078 23:1.0324390083482078 104:1.0324390083482078 108:1.0324390083482078 
1.0 0.0 5:0.7875135761102672 10:0.7875135761102672 52:0.7875135761102672 57:0.7875135761102672 61:0.7875135761102672 73:0.7875135761102672 196:0.7875135761102672 1355:0.7875135761102672 1506:0.7875135761102672 1621:0.7875135761102672 1624:0.7875135761102672 
1.0 0.38991490849706356 2:0.8906460914687613 91:0.8906460914687613 159:0.8906460914687613 234:0.8906460914687613 516:0.8906460914687613 535:0.8906460914687613 536:0.8906460914687613 
1.0 1.0 2:1.0489590814413852 
1.0 1.0 6:0.7417260796744153 39:0.7417260796744153 134:0.7417260796744153 987:0.7417260796744153 992:0.7417260796744153 
1.0 1.0 6:0.8022347300438142 11:0.8022347300438142 13:0.8022347300438142 25:0.8022347300438142 43:0.8022347300438142 58:0.8022347300438142 59:0.8022347300438142 658:0.8022347300438142 660:0.8022347300438142 661:0.8022347300438142 1039:0.8022347300438142 1044:0.8022347300438142 1045:0.8022347300438142 1285:0.8022347300438142 1288:0.8022347300438142 
1.0 1.0 29:1.1680713983432516 170:1.1680713983432516 1102:1.1680713983432516 1105:1.1680713983432516 
1.0 0.0 2:1.6859658406654474 58:1.6859658406654474 
1.0 1.0 5:0.8429829203327237 10:0.8429829203327237 331:0.8429829203327237 
1.0 1.0 29:0.7875135761102672 99:0.7875135761102672 262:0.7875135761102672 355:0.7875135761102672 1345:0.7875135761102672 1350:0.7875135761102672 1567:0.7875135761102672 1568:0.7875135761102672 
1.0 0.0 5:0.7947719191889441 10:0.7947719191889441 39:0.7947719191889441 230:0.7947719191889441 306:0.7947719191889441 332:0.7947719191889441 1167:0.7947719191889441 1177:0.7947719191889441 1333:0.7947719191889441 1334:0.7947719191889441 1358:0.7947719191889441 1375:0.7947719191889441 1379:0.7947719191889441 
1.0 0.0 2:1.0324390083482078 40:1.0324390083482078 59:1.0324390083482078 111:1.0324390083482078 198:1.0324390083482078 300:1.0324390083482078 444:1.0324390083482078 450:1.0324390083482078 1763:1.0324390083482078 1774:1.0324390083482078 
1.0 0.0 2:1.0166756550624372 66:1.0166756550624372 91:1.0166756550624372 109:1.0166756550624372 1644:1.0166756550624372 
1.0 1.0 8:0.935205582646157 10:0.935205582646157 11:0.935205582646157 13:0.935205582646157 25:0.935205582646157 43:0.935205582646157 62:0.935205582646157 78:0.935205582646157 848:0.935205582646157 868:0.935205582646157 
1.0 0.0 2:0.8022347300438142 4:0.8022347300438142 11:0.8022347300438142 13:0.8022347300438142 292:0.8022347300438142 603:0.8022347300438142 606:0.8022347300438142 607:0.8022347300438142 981:0.8022347300438142 994:0.8022347300438142 1461:0.8022347300438142 1469:0.8022347300438142 
1.0 1.0 5:0.7539868454941039 57:0.7539868454941039 61:0.7539868454941039 99:0.7539868454941039 126:0.7539868454941039 194:0.7539868454941039 511:0.7539868454941039 512:0.7539868454941039 1393:0.7539868454941039 
1.0 0.09720825481645601 2:0.70824731671061 7:0.70824731671061 96:0.70824731671061 156:0.70824731671061 159:0.70824731671061 220:0.70824731671061 247:0.70824731671061 564:0.70824731671061 570:0.70824731671061 571:0.70824731671061 
1.0 1.0 5:0.8022347300438142 52:0.8022347300438142 230:0.8022347300438142 332:0.8022347300438142 716:0.8022347300438142 719:0.8022347300438142 721:0.8022347300438142 
1.0 1.0 8:0.8429829203327237 70:0.8429829203327237 109:0.8429829203327237 869:0.8429829203327237 872:0.8429829203327237 911:0.8429829203327237 1017:0.8429829203327237 1018:0.8429829203327237 1025:0.8429829203327237 1229:0.8429829203327237 1236:0.8429829203327237 1483:0.8429829203327237 1486:0.8429829203327237 1492:0.8429829203327237 
1.0 1.0 10:0.9121105221687505 29:0.9121105221687505 97:0.9121105221687505 157:0.9121105221687505 680:0.9121105221687505 681:0.9121105221687505 
1.0 1.0 2:0.9601487749399159 96:0.9601487749399159 
1.0 1.0 2:0.7417260796744153 10:0.7417260796744153 123:0.7417260796744153 129:0.7417260796744153 157:0.7417260796744153 195:0.7417260796744153 209:0.7417260796744153 832:0.7417260796744153 834:0.7417260796744153 1364:0.7417260796744153 1365:0.7417260796744153 1366:0.7417260796744153 
1.0 1.0 5:0.8429829203327237 10:0.8429829203327237 286:0.8429829203327237 288:0.8429829203327237 289:0.8429829203327237 321:0.8429829203327237 368:0.8429829203327237 
1.0 0.0 2:1.5079736909882078 10:1.5079736909882078 
1.0 1.0 7:1.1921578787834162 8:1.1921578787834162 17:1.1921578787834162 18:1.1921578787834162 54:1.1921578787834162 60:1.1921578787834162 88:1.1921578787834162 129:1.1921578787834162 257:1.1921578787834162 560:1.1921578787834162 736:1.1921578787834162 1540:1.1921578787834162 
1.0 1.0 5:1.0324390083482078 209:1.0324390083482078 833:1.0324390083482078 837:1.0324390083482078 843:1.0324390083482078 
1.0 1.0 2:0.8343367131023226 39:0.8343367131023226 136:0.8343367131023226 193:0.8343367131023226 487:0.8343367131023226 501:0.8343367131023226 1625:0.8343367131023226 1626:0.8343367131023226 
1.0 0.0 2:0.9474310111071966 28:0.9474310111071966 58:0.9474310111071966 68:0.9474310111071966 78:0.9474310111071966 287:0.9474310111071966 
1.0 0.0 2:0.7603497164907803 10:0.7603497164907803 27:0.7603497164907803 29:0.7603497164907803 54:0.7603497164907803 60:0.7603497164907803 88:0.7603497164907803 116:0.7603497164907803 124:0.7603497164907803 222:0.7603497164907803 257:0.7603497164907803 329:0.7603497164907803 1485:0.7603497164907803 1501:0.7603497164907803 1502:0.7603497164907803 1533:0.7603497164907803 1540:0.7603497164907803 
1.0 1.0 29:0.8022347300438142 169:0.8022347300438142 
1.0 1.0 8:0.8906460914687613 81:0.8906460914687613 727:0.8906460914687613 734:0.8906460914687613 1282:0.8906460914687613 1284:0.8906460914687613 
1.0 0.0 2:0.8259512066785663 11:0.8259512066785663 23:0.8259512066785663 97:0.8259512066785663 161:0.8259512066785663 
1.0 1.0 5:0.7875135761102672 81:0.7875135761102672 122:0.7875135761102672 128:0.7875135761102672 1484:0.7875135761102672 1491:0.7875135761102672 1492:0.7875135761102672 
1.0 1.0 5:0.9872005121364871 129:0.9872005121364871 954:0.9872005121364871 957:0.9872005121364871 958:0.9872005121364871 
1.0 0.0 9:0.8343367131023226 10:0.8343367131023226 29:0.8343367131023226 39:0.8343367131023226 44:0.8343367131023226 83:0.8343367131023226 114:0.8343367131023226 319:0.8343367131023226 1671:0.8343367131023226 
1.0 1.0 2:0.7947719191889441 398:0.7947719191889441 407:0.7947719191889441 408:0.7947719191889441 714:0.7947719191889441 720:0.7947719191889441 722:0.7947719191889441 
1.0 1.0 5:0.8178135579114016 10:0.8178135579114016 1705:0.8178135579114016 1709:0.8178135579114016 1720:0.8178135579114016 1730:0.8178135579114016 1749:0.8178135579114016 1779:0.8178135579114016 
1.0 0.0 4:0.8099117923325994 10:0.8099117923325994 16:0.8099117923325994 29:0.8099117923325994 155:0.8099117923325994 179:0.8099117923325994 292:0.8099117923325994 911:0.8099117923325994 1031:0.8099117923325994 1033:0.8099117923325994 
1.0 1.0 5:0.9474310111071966 
1.0 1.0 6:0.7947719191889441 7:0.7947719191889441 10:0.7947719191889441 62:0.7947719191889441 75:0.7947719191889441 91:0.7947719191889441 119:0.7947719191889441 211:0.7947719191889441 304:0.7947719191889441 1219:0.7947719191889441 1220:0.7947719191889441 
1.0 1.0 5:0.7300446239645323 57:0.7300446239645323 61:0.7300446239645323 122:0.7300446239645323 985:0.7300446239645323 988:0.7300446239645323 1039:0.7300446239645323 1394:0.7300446239645323 
1.0 1.0 2:0.8022347300438142 127:0.8022347300438142 
1.0 0.0 2:0.9121105221687505 7:0.9121105221687505 10:0.9121105221687505 17:0.9121105221687505 18:0.9121105221687505 57:0.9121105221687505 61:0.9121105221687505 92:0.9121105221687505 130:0.9121105221687505 158:0.9121105221687505 183:0.9121105221687505 
1.0 1.0 8:0.8804669446932559 80:0.8804669446932559 109:0.8804669446932559 127:0.8804669446932559 226:0.8804669446932559 750:0.8804669446932559 752:0.8804669446932559 
1.0 0.0 2:0.8804669446932559 54:0.8804669446932559 60:0.8804669446932559 81:0.8804669446932559 88:0.8804669446932559 1539:0.8804669446932559 1541:0.8804669446932559 1784:0.8804669446932559 1790:0.8804669446932559 
1.0 1.0 5:0.7947719191889441 68:0.7947719191889441 196:0.7947719191889441 231:0.7947719191889441 468:0.7947719191889441 477:0.7947719191889441 602:0.7947719191889441 1291:0.7947719191889441 1299:0.7947719191889441 
1.0 1.0 7:0.7875135761102672 8:0.7875135761102672 10:0.7875135761102672 16:0.7875135761102672 102:0.7875135761102672 103:0.7875135761102672 210:0.7875135761102672 353:0.7875135761102672 741:0.7875135761102672 743:0.7875135761102672 
1.0 1.0 5:1.08452706665146 127:1.08452706665146 142:1.08452706665146 325:1.08452706665146 
1.0 1.0 5:0.7477810869136241 
1.0 0.7281127424095395 2:0.7539868454941039 11:0.7539868454941039 13:0.7539868454941039 51:0.7539868454941039 53:0.7539868454941039 136:0.7539868454941039 146:0.7539868454941039 201:0.7539868454941039 261:0.7539868454941039 
1.0 1.0 2:0.7603497164907803 28:0.7603497164907803 29:0.7603497164907803 193:0.7603497164907803 242:0.7603497164907803 258:0.7603497164907803 287:0.7603497164907803 968:0.7603497164907803 970:0.7603497164907803 1185:0.7603497164907803 1198:0.7603497164907803 1199:0.7603497164907803 1368:0.7603497164907803 1369:0.7603497164907803 1604:0.7603497164907803 1606:0.7603497164907803 
1.0 1.0 5:0.8022347300438142 70:0.8022347300438142 124:0.8022347300438142 192:0.8022347300438142 273:0.8022347300438142 
1.0 1.0 6:0.935205582646157 178:0.935205582646157 424:0.935205582646157 439:0.935205582646157 
1.0 0.0 5:0.9121105221687505 10:0.9121105221687505 60:0.9121105221687505 162:0.9121105221687505 234:0.9121105221687505 304:0.9121105221687505 356:0.9121105221687505 911:0.9121105221687505 1032:0.9121105221687505 1034:0.9121105221687505 1498:0.9121105221687505 1499:0.9121105221687505 1500:0.9121105221687505 
1.0 0.0 2:0.9733928319527098 7:0.9733928319527098 16:0.9733928319527098 44:0.9733928319527098 54:0.9733928319527098 60:0.9733928319527098 88:0.9733928319527098 102:0.9733928319527098 103:0.9733928319527098 129:0.9733928319527098 207:0.9733928319527098 1424:0.9733928319527098 
1.0 1.0 8:0.7539868454941039 92:0.7539868454941039 192:0.7539868454941039 733:0.7539868454941039 744:0.7539868454941039 932:0.7539868454941039 933:0.7539868454941039 982:0.7539868454941039 1070:0.7539868454941039 1071:0.7539868454941039 1099:0.7539868454941039 1292:0.7539868454941039 1297:0.7539868454941039 1298:0.7539868454941039 
1.0 1.0 2:0.8519036229413611 97:0.8519036229413611 144:0.8519036229413611 331:0.8519036229413611 1723:0.8519036229413611 1724:0.8519036229413611 
1.0 1.0 29:1.2451682944064042 60:1.2451682944064042 234:1.2451682944064042 356:1.2451682944064042 1493:1.2451682944064042 
1.0 0.0 4:0.8343367131023226 29:0.8343367131023226 62:0.8343367131023226 70:0.8343367131023226 71:0.8343367131023226 97:0.8343367131023226 109:0.8343367131023226 111:0.8343367131023226 246:0.8343367131023226 310:0.8343367131023226 315:0.8343367131023226 
1.0 0.0 5:0.780450531408999 10:0.780450531408999 16:0.780450531408999 78:0.780450531408999 106:0.780450531408999 293:0.780450531408999 642:0.780450531408999 696:0.780450531408999 698:0.780450531408999 
1.0 1.0 7:0.780450531408999 10:0.780450531408999 17:0.780450531408999 18:0.780450531408999 22:0.780450531408999 29:0.780450531408999 46:0.780450531408999 71:0.780450531408999 116:0.780450531408999 235:0.780450531408999 329:0.780450531408999 
1.0 1.0 8:0.8343367131023226 39:0.8343367131023226 109:0.8343367131023226 126:0.8343367131023226 879:0.8343367131023226 882:0.8343367131023226 1292:0.8343367131023226 1295:0.8343367131023226 1296:0.8343367131023226 
1.0 0.0 2:0.780450531408999 10:0.780450531408999 54:0.780450531408999 91:0.780450531408999 130:0.780450531408999 158:0.780450531408999 213:0.780450531408999 214:0.780450531408999 304:0.780450531408999 1037:0.780450531408999 1039:0.780450531408999 1495:0.780450531408999 1496:0.780450531408999 
1.0 0.0 2:0.7603497164907803 11:0.7603497164907803 13:0.7603497164907803 92:0.7603497164907803 101:0.7603497164907803 142:0.7603497164907803 480:0.7603497164907803 482:0.7603497164907803 
1.0 1.0 6:1.8468830442312523 
1.0 1.0 29:0.935205582646157 96:0.935205582646157 
1.0 1.0 2:0.8022347300438142 3:0.8022347300438142 74:0.8022347300438142 129:0.8022347300438142 132:0.8022347300438142 565:0.8022347300438142 586:0.8022347300438142 588:0.8022347300438142 1091:0.8022347300438142 1096:0.8022347300438142 1098:0.8022347300438142 
1.0 1.0 8:0.8906460914687613 129:0.8906460914687613 560:0.8906460914687613 735:0.8906460914687613 
1.0 1.0 8:0.7947719191889441 16:0.7947719191889441 40:0.7947719191889441 45:0.7947719191889441 47:0.7947719191889441 448:0.7947719191889441 449:0.7947719191889441 738:0.7947719191889441 764:0.7947719191889441 1700:0.7947719191889441 1701:0.7947719191889441 
1.0 1.0 8:0.780450531408999 10:0.780450531408999 11:0.780450531408999 23:0.780450531408999 136:0.780450531408999 353:0.780450531408999 740:0.780450531408999 742:0.780450531408999 1623:0.780450531408999 1625:0.780450531408999 1756:0.780450531408999 1757:0.780450531408999 
1.0 1.0 2:0.7539868454941039 106:0.7539868454941039 632:0.7539868454941039 634:0.7539868454941039 638:0.7539868454941039 662:0.7539868454941039 663:0.7539868454941039 1261:0.7539868454941039 1263:0.7539868454941039 
1.0 1.0 7:0.8429829203327237 10:0.8429829203327237 29:0.8429829203327237 51:0.8429829203327237 108:0.8429829203327237 129:0.8429829203327237 
1.0 0.0 4:0.8099117923325994 10:0.8099117923325994 29:0.8099117923325994 58:0.8099117923325994 73:0.8099117923325994 84:0.8099117923325994 124:0.8099117923325994 149:0.8099117923325994 222:0.8099117923325994 483:0.8099117923325994 484:0.8099117923325994 1264:0.8099117923325994 1266:0.8099117923325994 1340:0.8099117923325994 1341:0.8099117923325994 
1.0 1.0 5:0.7875135761102672 304:0.7875135761102672 911:0.7875135761102672 914:0.7875135761102672 915:0.7875135761102672 1515:0.7875135761102672 1518:0.7875135761102672 1520:0.7875135761102672 
1.0 1.0 8:0.7875135761102672 19:0.7875135761102672 86:0.7875135761102672 106:0.7875135761102672 119:0.7875135761102672 122:0.7875135761102672 128:0.7875135761102672 136:0.7875135761102672 756:0.7875135761102672 761:0.7875135761102672 1316:0.7875135761102672 1317:0.7875135761102672 1318:0.7875135761102672 1620:0.7875135761102672 
1.0 1.0 2:0.8519036229413611 39:0.8519036229413611 258:0.8519036229413611 1114:0.8519036229413611 
1.0 1.0 2:0.8429829203327237 9:0.8429829203327237 73:0.8429829203327237 318:0.8429829203327237 715:0.8429829203327237 717:0.8429829203327237 718:0.8429829203327237 
1.0 0.0 4:0.9011866487963441 7:0.9011866487963441 11:0.9011866487963441 13:0.9011866487963441 25:0.9011866487963441 27:0.9011866487963441 29:0.9011866487963441 43:0.9011866487963441 77:0.9011866487963441 102:0.9011866487963441 103:0.9011866487963441 107:0.9011866487963441 111:0.9011866487963441 129:0.9011866487963441 238:0.9011866487963441 
1.0 1.0 2:0.9234415221156261 96:0.9234415221156261 565:0.9234415221156261 593:0.9234415221156261 596:0.9234415221156261 1441:0.9234415221156261 1442:0.9234415221156261 1458:0.9234415221156261 
1.0 1.0 6:0.935205582646157 28:0.935205582646157 
1.0 1.0 5:0.8099117923325994 10:0.8099117923325994 40:0.8099117923325994 87:0.8099117923325994 112:0.8099117923325994 252:0.8099117923325994 449:0.8099117923325994 977:0.8099117923325994 978:0.8099117923325994 1737:0.8099117923325994 1738:0.8099117923325994 
1.0 0.0 2:1.0016129608064974 44:1.0016129608064974 122:1.0016129608064974 128:1.0016129608064974 157:1.0016129608064974 
1.0 1.0 5:0.8178135579114016 1148:0.8178135579114016 1200:0.8178135579114016 1202:0.8178135579114016 1203:0.8178135579114016 1574:0.8178135579114016 1591:0.8178135579114016 1613:0.8178135579114016 1614:0.8178135579114016 
1.0 1.0 5:0.8099117923325994 52:0.8099117923325994 564:0.8099117923325994 575:0.8099117923325994 600:0.8099117923325994 1791:0.8099117923325994 1800:0.8099117923325994 
1.0 0.0 2:1.3398697853206516 4:1.3398697853206516 11:1.3398697853206516 84:1.3398697853206516 161:1.3398697853206516 
1.0 0.2893376560612434 2:0.7875135761102672 80:0.7875135761102672 90:0.7875135761102672 296:0.7875135761102672 646:0.7875135761102672 683:0.7875135761102672 711:0.7875135761102672 1106:0.7875135761102672 1107:0.7875135761102672 1108:0.7875135761102672 
1.0 0.0 4:0.8022347300438142 7:0.8022347300438142 10:0.8022347300438142 11:0.8022347300438142 13:0.8022347300438142 23:0.8022347300438142 29:0.8022347300438142 77:0.8022347300438142 102:0.8022347300438142 103:0.8022347300438142 107:0.8022347300438142 111:0.8022347300438142 162:0.8022347300438142 169:0.8022347300438142 252:0.8022347300438142 415:0.8022347300438142 416:0.8022347300438142 
1.0 0.0 2:0.7603497164907803 10:0.7603497164907803 27:0.7603497164907803 47:0.7603497164907803 99:0.7603497164907803 120:0.7603497164907803 122:0.7603497164907803 132:0.7603497164907803 989:0.7603497164907803 990:0.7603497164907803 991:0.7603497164907803 1467:0.7603497164907803 1468:0.7603497164907803 
1.0 1.0 5:0.7417260796744153 57:0.7417260796744153 61:0.7417260796744153 296:0.7417260796744153 1279:0.7417260796744153 1280:0.7417260796744153 1283:0.7417260796744153 1380:0.7417260796744153 1395:0.7417260796744153 1476:0.7417260796744153 1478:0.7417260796744153 
1.0 0.0 4:0.8178135579114016 7:0.8178135579114016 8:0.8178135579114016 10:0.8178135579114016 11:0.8178135579114016 13:0.8178135579114016 17:0.8178135579114016 18:0.8178135579114016 25:0.8178135579114016 43:0.8178135579114016 115:0.8178135579114016 148:0.8178135579114016 162:0.8178135579114016 218:0.8178135579114016 248:0.8178135579114016 880:0.8178135579114016 881:0.8178135579114016 
1.0 1.0 8:0.9234415221156261 160:0.9234415221156261 756:0.9234415221156261 762:0.9234415221156261 798:0.9234415221156261 800:0.9234415221156261 1173:0.9234415221156261 1174:0.9234415221156261 1175:0.9234415221156261 
1.0 1.0 6:0.8343367131023226 133:0.8343367131023226 161:0.8343367131023226 192:0.8343367131023226 324:0.8343367131023226 1169:0.8343367131023226 1170:0.8343367131023226 1171:0.8343367131023226 
1.0 1.0 5:0.9121105221687505 106:0.9121105221687505 311:0.9121105221687505 1165:0.9121105221687505 1166:0.9121105221687505 1168:0.9121105221687505 
1.0 0.0 2:0.935205582646157 9:0.935205582646157 23:0.935205582646157 28:0.935205582646157 104:0.935205582646157 147:0.935205582646157 172:0.935205582646157 283:0.935205582646157 290:0.935205582646157 
1.0 1.0 5:0.8804669446932559 565:0.8804669446932559 597:0.8804669446932559 598:0.8804669446932559 
1.0 0.0 2:1.1680713983432516 7:1.1680713983432516 10:1.1680713983432516 17:1.1680713983432516 18:1.1680713983432516 115:1.1680713983432516 148:1.1680713983432516 162:1.1680713983432516 248:1.1680713983432516 
1.0 1.0 4:0.8022347300438142 8:0.8022347300438142 66:0.8022347300438142 90:0.8022347300438142 91:0.8022347300438142 198:0.8022347300438142 212:0.8022347300438142 218:0.8022347300438142 284:0.8022347300438142 745:0.8022347300438142 746:0.8022347300438142 1630:0.8022347300438142 1763:0.8022347300438142 1773:0.8022347300438142 
1.0 0.0 2:0.8022347300438142 20:0.8022347300438142 62:0.8022347300438142 71:0.8022347300438142 111:0.8022347300438142 119:0.8022347300438142 208:0.8022347300438142 310:0.8022347300438142 315:0.8022347300438142 1651:0.8022347300438142 1695:0.8022347300438142 
1.0 0.0 5:2.0648780166964156 16:2.0648780166964156 23:2.0648780166964156 
1.0 1.0 2:0.7947719191889441 7:0.7947719191889441 17:0.7947719191889441 18:0.7947719191889441 40:0.7947719191889441 55:0.7947719191889441 129:0.7947719191889441 237:0.7947719191889441 279:0.7947719191889441 441:0.7947719191889441 1126:0.7947719191889441 1127:0.7947719191889441 1128:0.7947719191889441 
1.0 1.0 5:0.7735741812339244 1579:0.7735741812339244 1607:0.7735741812339244 
1.0 1.0 5:0.7947719191889441 54:0.7947719191889441 60:0.7947719191889441 88:0.7947719191889441 603:0.7947719191889441 608:0.7947719191889441 609:0.7947719191889441 1104:0.7947719191889441 1109:0.7947719191889441 1120:0.7947719191889441 1430:0.7947719191889441 1435:0.7947719191889441 
1.0 1.0 8:0.8429829203327237 10:0.8429829203327237 11:0.8429829203327237 867:0.8429829203327237 878:0.8429829203327237 
1.0 1.0 4:0.7735741812339244 6:0.7735741812339244 10:0.7735741812339244 521:0.7735741812339244 549:0.7735741812339244 
1.0 1.0 5:0.7477810869136241 8:0.7477810869136241 10:0.7477810869136241 11:0.7477810869136241 13:0.7477810869136241 21:0.7477810869136241 51:0.7477810869136241 63:0.7477810869136241 64:0.7477810869136241 75:0.7477810869136241 100:0.7477810869136241 219:0.7477810869136241 603:0.7477810869136241 622:0.7477810869136241 623:0.7477810869136241 801:0.7477810869136241 803:0.7477810869136241 
1.0 1.0 29:1.0662984227486692 1117:1.0662984227486692 1118:1.0662984227486692 1119:1.0662984227486692 
1.0 1.0 2:1.0016129608064974 432:1.0016129608064974 437:1.0016129608064974 929:1.0016129608064974 930:1.0016129608064974 931:1.0016129608064974 1697:1.0016129608064974 1704:1.0016129608064974 
1.0 0.0 2:0.9011866487963441 10:0.9011866487963441 16:0.9011866487963441 123:0.9011866487963441 179:0.9011866487963441 195:0.9011866487963441 359:0.9011866487963441 362:0.9011866487963441 675:0.9011866487963441 678:0.9011866487963441 830:0.9011866487963441 836:0.9011866487963441 
1.0 0.0 2:0.7947719191889441 7:0.7947719191889441 10:0.7947719191889441 11:0.7947719191889441 13:0.7947719191889441 17:0.7947719191889441 18:0.7947719191889441 51:0.7947719191889441 172:0.7947719191889441 
1.0 1.0 10:0.8706290164229152 29:0.8706290164229152 151:0.8706290164229152 155:0.8706290164229152 330:0.8706290164229152 896:0.8706290164229152 908:0.8706290164229152 
1.0 1.0 5:0.8611136595015755 261:0.8611136595015755 262:0.8611136595015755 354:0.8611136595015755 
1.0 1.0 5:0.8429829203327237 57:0.8429829203327237 61:0.8429829203327237 238:0.8429829203327237 687:0.8429829203327237 711:0.8429829203327237 712:0.8429829203327237 1382:0.8429829203327237 
1.0 0.0 2:0.8429829203327237 4:0.8429829203327237 7:0.8429829203327237 11:0.8429829203327237 13:0.8429829203327237 25:0.8429829203327237 43:0.8429829203327237 77:0.8429829203327237 107:0.8429829203327237 111:0.8429829203327237 222:0.8429829203327237 370:0.8429829203327237 
1.0 0.0 2:0.9121105221687505 10:0.9121105221687505 52:0.9121105221687505 54:0.9121105221687505 60:0.9121105221687505 88:0.9121105221687505 234:0.9121105221687505 356:0.9121105221687505 1427:0.9121105221687505 1462:0.9121105221687505 1463:0.9121105221687505 1480:0.9121105221687505 
1.0 0.0 2:0.9121105221687505 44:0.9121105221687505 54:0.9121105221687505 60:0.9121105221687505 83:0.9121105221687505 88:0.9121105221687505 1083:0.9121105221687505 1093:0.9121105221687505 1094:0.9121105221687505 1539:0.9121105221687505 1542:0.9121105221687505 1668:0.9121105221687505 
1.0 1.0 6:1.2744703809573492 10:1.2744703809573492 
1.0 1.0 5:1.5079736909882078 159:1.5079736909882078 
1.0 1.0 5:0.766876443209602 10:0.766876443209602 44:0.766876443209602 83:0.766876443209602 197:0.766876443209602 1670:0.766876443209602 1782:0.766876443209602 1783:0.766876443209602 
1.0 1.0 29:1.2451682944064042 133:1.2451682944064042 1039:1.2451682944064042 
1.0 1.0 4:0.8022347300438142 5:0.8022347300438142 44:0.8022347300438142 54:0.8022347300438142 55:0.8022347300438142 90:0.8022347300438142 1424:0.8022347300438142 
1.0 0.0 2:0.9121105221687505 10:0.9121105221687505 
1.0 1.0 29:0.9474310111071966 1750:0.9474310111071966 1751:0.9474310111071966 
1.0 1.0 5:1.08452706665146 10:1.08452706665146 201:1.08452706665146 325:1.08452706665146 1756:1.08452706665146 
1.0 1.0 2:0.9121105221687505 4:0.9121105221687505 197:0.9121105221687505 1110:0.9121105221687505 1111:0.9121105221687505 1112:0.9121105221687505 
1.0 1.0 5:0.9234415221156261 209:0.9234415221156261 
1.0 0.0 5:0.7477810869136241 10:0.7477810869136241 52:0.7477810869136241 73:0.7477810869136241 116:0.7477810869136241 133:0.7477810869136241 149:0.7477810869136241 196:0.7477810869136241 200:0.7477810869136241 239:0.7477810869136241 329:0.7477810869136241 565:0.7477810869136241 587:0.7477810869136241 591:0.7477810869136241 
1.0 0.0 2:0.7735741812339244 10:0.7735741812339244 16:0.7735741812339244 73:0.7735741812339244 135:0.7735741812339244 149:0.7735741812339244 200:0.7735741812339244 239:0.7735741812339244 1640:0.7735741812339244 1641:0.7735741812339244 
1.0 1.0 6:1.3765853444642773 66:1.3765853444642773 91:1.3765853444642773 212:1.3765853444642773 
1.0 0.0 5:0.7417260796744153 7:0.7417260796744153 10:0.7417260796744153 17:0.7417260796744153 18:0.7417260796744153 108:0.7417260796744153 219:0.7417260796744153 1729:0.7417260796744153 1732:0.7417260796744153 
1.0 0.0 4:1.1239772271102981 11:1.1239772271102981 13:1.1239772271102981 25:1.1239772271102981 29:1.1239772271102981 43:1.1239772271102981 77:1.1239772271102981 107:1.1239772271102981 109:1.1239772271102981 185:1.1239772271102981 
1.0 1.0 5:1.0489590814413852 10:1.0489590814413852 219:1.0489590814413852 1781:1.0489590814413852 
1.0 1.0 45:0.8706290164229152 72:0.8706290164229152 97:0.8706290164229152 1113:0.8706290164229152 1115:0.8706290164229152 1513:0.8706290164229152 1726:0.8706290164229152 1727:0.8706290164229152 
1.0 0.0 5:0.7358158175199304 54:0.7358158175199304 60:0.7358158175199304 80:0.7358158175199304 88:0.7358158175199304 257:0.7358158175199304 1534:0.7358158175199304 1540:0.7358158175199304 
1.0 1.0 5:0.7603497164907803 7:0.7603497164907803 17:0.7603497164907803 18:0.7603497164907803 22:0.7603497164907803 55:0.7603497164907803 62:0.7603497164907803 129:0.7603497164907803 140:0.7603497164907803 204:0.7603497164907803 211:0.7603497164907803 263:0.7603497164907803 354:0.7603497164907803 
1.0 1.0 8:0.8022347300438142 10:0.8022347300438142 16:0.8022347300438142 75:0.8022347300438142 164:0.8022347300438142 323:0.8022347300438142 756:0.8022347300438142 757:0.8022347300438142 1001:0.8022347300438142 1002:0.8022347300438142 
1.0 1.0 6:0.9234415221156261 301:0.9234415221156261 
1.0 0.4022072470008341 5:0.766876443209602 11:0.766876443209602 123:0.766876443209602 135:0.766876443209602 164:0.766876443209602 169:0.766876443209602 195:0.766876443209602 829:0.766876443209602 836:0.766876443209602 1565:0.766876443209602 
1.0 1.0 1:0.7539868454941039 7:0.7539868454941039 8:0.7539868454941039 10:0.7539868454941039 14:0.7539868454941039 20:0.7539868454941039 69:0.7539868454941039 74:0.7539868454941039 79:0.7539868454941039 318:0.7539868454941039 
1.0 1.0 2:0.8519036229413611 29:0.8519036229413611 231:0.8519036229413611 391:0.8519036229413611 409:0.8519036229413611 410:0.8519036229413611 1590:0.8519036229413611 1597:0.8519036229413611 
1.0 0.0 4:0.7300446239645323 5:0.7300446239645323 10:0.7300446239645323 51:0.7300446239645323 66:0.7300446239645323 91:0.7300446239645323 108:0.7300446239645323 191:0.7300446239645323 251:0.7300446239645323 938:0.7300446239645323 939:0.7300446239645323 1046:0.7300446239645323 1047:0.7300446239645323 1048:0.7300446239645323 1634:0.7300446239645323 
1.0 1.0 8:0.9872005121364871 72:0.9872005121364871 751:0.9872005121364871 756:0.9872005121364871 
1.0 1.0 8:0.7477810869136241 10:0.7477810869136241 68:0.7477810869136241 826:0.7477810869136241 828:0.7477810869136241 976:0.7477810869136241 983:0.7477810869136241 
1.0 1.0 5:0.7417260796744153 91:0.7417260796744153 92:0.7417260796744153 151:0.7417260796744153 770:0.7417260796744153 773:0.7417260796744153 774:0.7417260796744153 890:0.7417260796744153 891:0.7417260796744153 897:0.7417260796744153 944:0.7417260796744153 1056:0.7417260796744153 
1.0 1.0 6:1.5079736909882078 16:1.5079736909882078 669:1.5079736909882078 
1.0 1.0 2:0.7358158175199304 99:0.7358158175199304 122:0.7358158175199304 128:0.7358158175199304 205:0.7358158175199304 
1.0 1.0 5:1.7609338893865119 
1.0 1.0 8:1.2451682944064042 54:1.2451682944064042 60:1.2451682944064042 88:1.2451682944064042 814:1.2451682944064042 815:1.2451682944064042 1536:1.2451682944064042 1538:1.2451682944064042 1784:1.2451682944064042 1790:1.2451682944064042 
1.0 1.0 7:0.780450531408999 10:0.780450531408999 17:0.780450531408999 18:0.780450531408999 29:0.780450531408999 115:0.780450531408999 148:0.780450531408999 
1.0 1.0 2:0.9601487749399159 29:0.9601487749399159 
1.0 1.0 29:0.7735741812339244 62:0.7735741812339244 986:0.7735741812339244 1014:0.7735741812339244 1039:0.7735741812339244 1452:0.7735741812339244 1455:0.7735741812339244 1457:0.7735741812339244 1787:0.7735741812339244 
1.0 1.0 10:0.7539868454941039 29:0.7539868454941039 44:0.7539868454941039 83:0.7539868454941039 187:0.7539868454941039 974:0.7539868454941039 975:0.7539868454941039 1670:0.7539868454941039 
1.0 1.0 6:1.305943524634373 54:1.305943524634373 60:1.305943524634373 88:1.305943524634373 238:1.305943524634373 257:1.305943524634373 1526:1.305943524634373 1540:1.305943524634373 
1.0 1.0 8:0.8022347300438142 39:0.8022347300438142 41:0.8022347300438142 42:0.8022347300438142 57:0.8022347300438142 61:0.8022347300438142 113:0.8022347300438142 841:0.8022347300438142 842:0.8022347300438142 942:0.8022347300438142 947:0.8022347300438142 979:0.8022347300438142 980:0.8022347300438142 
1.0 0.0 2:0.935205582646157 7:0.935205582646157 102:0.935205582646157 103:0.935205582646157 133:0.935205582646157 1572:0.935205582646157 1573:0.935205582646157 
1.0 1.0 2:0.8259512066785663 81:0.8259512066785663 319:0.8259512066785663 997:0.8259512066785663 1005:0.8259512066785663 1761:0.8259512066785663 1762:0.8259512066785663 
1.0 1.0 8:0.7947719191889441 10:0.7947719191889441 51:0.7947719191889441 78:0.7947719191889441 120:0.7947719191889441 157:0.7947719191889441 864:0.7947719191889441 865:0.7947719191889441 1396:0.7947719191889441 1397:0.7947719191889441 
1.0 1.0 6:1.3765853444642773 80:1.3765853444642773 226:1.3765853444642773 
1.0 1.0 6:0.8343367131023226 10:0.8343367131023226 16:0.8343367131023226 179:0.8343367131023226 252:0.8343367131023226 911:0.8343367131023226 1053:0.8343367131023226 1055:0.8343367131023226 
1.0 1.0 21:0.8519036229413611 29:0.8519036229413611 46:0.8519036229413611 63:0.8519036229413611 64:0.8519036229413611 122:0.8519036229413611 128:0.8519036229413611 171:0.8519036229413611 280:0.8519036229413611 1186:0.8519036229413611 1187:0.8519036229413611 1195:0.8519036229413611 
1.0 1.0 10:0.8259512066785663 29:0.8259512066785663 39:0.8259512066785663 187:0.8259512066785663 1123:0.8259512066785663 1124:0.8259512066785663 1131:0.8259512066785663 1257:0.8259512066785663 1311:0.8259512066785663 1323:0.8259512066785663 
1.0 1.0 72:0.8429829203327237 151:0.8429829203327237 318:0.8429829203327237 331:0.8429829203327237 
1.0 1.0 8:0.7947719191889441 99:0.7947719191889441 135:0.7947719191889441 261:0.7947719191889441 262:0.7947719191889441 355:0.7947719191889441 805:0.7947719191889441 806:0.7947719191889441 
1.0 1.0 2:0.7875135761102672 10:0.7875135761102672 53:0.7875135761102672 54:0.7875135761102672 92:0.7875135761102672 113:0.7875135761102672 138:0.7875135761102672 151:0.7875135761102672 229:0.7875135761102672 1419:0.7875135761102672 1422:0.7875135761102672 
1.0 1.0 2:1.560901062817998 
1.0 0.3609620482442135 5:1.41649463342122 126:1.41649463342122 230:1.41649463342122 262:1.41649463342122 332:1.41649463342122 
1.0 0.0 4:0.8099117923325994 7:0.8099117923325994 10:0.8099117923325994 17:0.8099117923325994 18:0.8099117923325994 29:0.8099117923325994 54:0.8099117923325994 71:0.8099117923325994 142:0.8099117923325994 235:0.8099117923325994 300:0.8099117923325994 1285:0.8099117923325994 1288:0.8099117923325994 1503:0.8099117923325994 1522:0.8099117923325994 
1.0 0.2684495715269439 2:0.8519036229413611 23:0.8519036229413611 104:0.8519036229413611 253:0.8519036229413611 283:0.8519036229413611 290:0.8519036229413611 312:0.8519036229413611 1611:0.8519036229413611 1618:0.8519036229413611 
1.0 1.0 3:0.8706290164229152 6:0.8706290164229152 10:0.8706290164229152 58:0.8706290164229152 59:0.8706290164229152 90:0.8706290164229152 132:0.8706290164229152 145:0.8706290164229152 
1.0 0.0 4:0.7603497164907803 5:0.7603497164907803 10:0.7603497164907803 52:0.7603497164907803 57:0.7603497164907803 61:0.7603497164907803 187:0.7603497164907803 292:0.7603497164907803 507:0.7603497164907803 508:0.7603497164907803 531:0.7603497164907803 532:0.7603497164907803 533:0.7603497164907803 1381:0.7603497164907803 1752:0.7603497164907803 1756:0.7603497164907803 1766:0.7603497164907803 
1.0 1.0 8:0.9121105221687505 11:0.9121105221687505 13:0.9121105221687505 23:0.9121105221687505 25:0.9121105221687505 43:0.9121105221687505 104:0.9121105221687505 122:0.9121105221687505 128:0.9121105221687505 809:0.9121105221687505 816:0.9121105221687505 
1.0 1.0 5:0.9601487749399159 10:0.9601487749399159 
1.0 0.0 2:0.7477810869136241 7:0.7477810869136241 10:0.7477810869136241 11:0.7477810869136241 13:0.7477810869136241 25:0.7477810869136241 43:0.7477810869136241 62:0.7477810869136241 77:0.7477810869136241 102:0.7477810869136241 103:0.7477810869136241 107:0.7477810869136241 119:0.7477810869136241 130:0.7477810869136241 158:0.7477810869136241 164:0.7477810869136241 370:0.7477810869136241 
1.0 0.0 2:0.8906460914687613 10:0.8906460914687613 57:0.8906460914687613 61:0.8906460914687613 108:0.8906460914687613 953:0.8906460914687613 954:0.8906460914687613 956:0.8906460914687613 1327:0.8906460914687613 1739:0.8906460914687613 1756:0.8906460914687613 
1.0 1.0 10:0.8906460914687613 29:0.8906460914687613 92:0.8906460914687613 665:0.8906460914687613 667:0.8906460914687613 911:0.8906460914687613 916:0.8906460914687613 917:0.8906460914687613 
1.0 1.0 5:0.7539868454941039 7:0.7539868454941039 81:0.7539868454941039 129:0.7539868454941039 
1.0 0.0 2:0.8343367131023226 10:0.8343367131023226 16:0.8343367131023226 159:0.8343367131023226 312:0.8343367131023226 
1.0 0.0 5:0.8519036229413611 10:0.8519036229413611 16:0.8519036229413611 21:0.8519036229413611 54:0.8519036229413611 113:0.8519036229413611 162:0.8519036229413611 664:0.8519036229413611 674:0.8519036229413611 1421:0.8519036229413611 1428:0.8519036229413611 
1.0 0.0 2:0.780450531408999 10:0.780450531408999 47:0.780450531408999 62:0.780450531408999 136:0.780450531408999 209:0.780450531408999 310:0.780450531408999 315:0.780450531408999 1566:0.780450531408999 
1.0 0.0 10:0.8178135579114016 66:0.8178135579114016 91:0.8178135579114016 1631:0.8178135579114016 
1.0 1.0 5:1.6859658406654474 20:1.6859658406654474 
1.0 1.0 10:0.8178135579114016 22:0.8178135579114016 29:0.8178135579114016 157:0.8178135579114016 172:0.8178135579114016 183:0.8178135579114016 
1.0 1.0 72:0.9234415221156261 1132:0.9234415221156261 1133:0.9234415221156261 1138:0.9234415221156261 
1.0 0.0 2:0.7417260796744153 7:0.7417260796744153 10:0.7417260796744153 81:0.7417260796744153 91:0.7417260796744153 
1.0 1.0 9:0.9011866487963441 24:0.9011866487963441 27:0.9011866487963441 29:0.9011866487963441 114:0.9011866487963441 935:0.9011866487963441 1769:0.9011866487963441 1770:0.9011866487963441 
1.0 1.0 2:0.9733928319527098 166:0.9733928319527098 1088:0.9733928319527098 1141:0.9733928319527098 1142:0.9733928319527098 
1.0 1.0 2:0.766876443209602 129:0.766876443209602 1658:0.766876443209602 
1.0 1.0 2:0.8906460914687613 92:0.8906460914687613 
1.0 1.0 29:0.7603497164907803 53:0.7603497164907803 126:0.7603497164907803 644:0.7603497164907803 647:0.7603497164907803 648:0.7603497164907803 1250:0.7603497164907803 1255:0.7603497164907803 1256:0.7603497164907803 1660:0.7603497164907803 
1.0 1.0 6:1.0662984227486692 71:1.0662984227486692 
1.0 1.0 6:1.6859658406654474 10:1.6859658406654474 16:1.6859658406654474 
1.0 0.0 2:0.8611136595015755 7:0.8611136595015755 10:0.8611136595015755 17:0.8611136595015755 18:0.8611136595015755 169:0.8611136595015755 258:0.8611136595015755 
1.0 0.0 2:1.5079736909882078 11:1.5079736909882078 13:1.5079736909882078 
1.0 0.0 5:1.1921578787834162 54:1.1921578787834162 60:1.1921578787834162 88:1.1921578787834162 213:1.1921578787834162 214:1.1921578787834162 257:1.1921578787834162 1535:1.1921578787834162 1540:1.1921578787834162 
1.0 0.0 10:0.766876443209602 16:0.766876443209602 29:0.766876443209602 44:0.766876443209602 57:0.766876443209602 61:0.766876443209602 83:0.766876443209602 161:0.766876443209602 179:0.766876443209602 1392:0.766876443209602 1669:0.766876443209602 1748:0.766876443209602 1756:0.766876443209602 
1.0 1.0 5:1.2744703809573492 1337:1.2744703809573492 1347:1.2744703809573492 
1.0 1.0 5:0.9733928319527098 10:0.9733928319527098 911:0.9733928319527098 918:0.9733928319527098 971:0.9733928319527098 1449:0.9733928319527098 1450:0.9733928319527098 1458:0.9733928319527098 
1.0 0.3788091108085503 29:0.8022347300438142 54:0.8022347300438142 60:0.8022347300438142 88:0.8022347300438142 106:0.8022347300438142 136:0.8022347300438142 142:0.8022347300438142 776:0.8022347300438142 777:0.8022347300438142 782:0.8022347300438142 1494:0.8022347300438142 1497:0.8022347300438142 1685:0.8022347300438142 1690:0.8022347300438142 1785:0.8022347300438142 1786:0.8022347300438142 
1.0 1.0 7:0.935205582646157 8:0.935205582646157 10:0.935205582646157 358:0.935205582646157 367:0.935205582646157 369:0.935205582646157 729:0.935205582646157 730:0.935205582646157 
1.0 1.0 6:0.8429829203327237 10:0.8429829203327237 11:0.8429829203327237 59:0.8429829203327237 92:0.8429829203327237 230:0.8429829203327237 317:0.8429829203327237 332:0.8429829203327237 1787:0.8429829203327237 1788:0.8429829203327237 
1.0 1.0 29:0.8099117923325994 208:0.8099117923325994 964:0.8099117923325994 967:0.8099117923325994 1252:0.8099117923325994 1262:0.8099117923325994 
1.0 1.0 27:0.780450531408999 29:0.780450531408999 57:0.780450531408999 58:0.780450531408999 61:0.780450531408999 62:0.780450531408999 70:0.780450531408999 1384:0.780450531408999 1609:0.780450531408999 1650:0.780450531408999 
1.0 1.0 5:0.8022347300438142 129:0.8022347300438142 197:0.8022347300438142 
1.0 1.0 8:0.7947719191889441 51:0.7947719191889441 67:0.7947719191889441 78:0.7947719191889441 124:0.7947719191889441 870:0.7947719191889441 871:0.7947719191889441 
1.0 1.0 2:0.8099117923325994 109:0.8099117923325994 1008:0.8099117923325994 1009:0.8099117923325994 1582:0.8099117923325994 1583:0.8099117923325994 1615:0.8099117923325994 1616:0.8099117923325994 
1.0 0.0 2:0.7358158175199304 3:0.7358158175199304 4:0.7358158175199304 7:0.7358158175199304 10:0.7358158175199304 22:0.7358158175199304 89:0.7358158175199304 218:0.7358158175199304 552:0.7358158175199304 553:0.7358158175199304 785:0.7358158175199304 786:0.7358158175199304 787:0.7358158175199304 
1.0 0.0 2:0.766876443209602 4:0.766876443209602 58:0.766876443209602 84:0.766876443209602 97:0.766876443209602 
1.0 1.0 5:0.7477810869136241 92:0.7477810869136241 1230:0.7477810869136241 1237:0.7477810869136241 
1.0 1.0 4:0.8804669446932559 5:0.8804669446932559 246:0.8804669446932559 
1.0 0.0 2:0.9474310111071966 10:0.9474310111071966 108:0.9474310111071966 301:0.9474310111071966 312:0.9474310111071966 
1.0 0.6568840981564671 5:1.0016129608064974 9:1.0016129608064974 23:1.0016129608064974 73:1.0016129608064974 93:1.0016129608064974 159:1.0016129608064974 200:1.0016129608064974 
1.0 0.0 5:1.1680713983432516 16:1.1680713983432516 54:1.1680713983432516 60:1.1680713983432516 88:1.1680713983432516 130:1.1680713983432516 158:1.1680713983432516 1558:1.1680713983432516 1559:1.1680713983432516 
1.0 1.0 8:1.9467856639054195 90:1.9467856639054195 812:1.9467856639054195 813:1.9467856639054195 
1.0 1.0 6:0.7603497164907803 11:0.7603497164907803 13:0.7603497164907803 47:0.7603497164907803 261:0.7603497164907803 1276:0.7603497164907803 1277:0.7603497164907803 1281:0.7603497164907803 1286:0.7603497164907803 
1.0 0.4014124606266588 2:0.7947719191889441 7:0.7947719191889441 57:0.7947719191889441 61:0.7947719191889441 129:0.7947719191889441 235:0.7947719191889441 551:0.7947719191889441 557:0.7947719191889441 558:0.7947719191889441 1001:0.7947719191889441 1002:0.7947719191889441 1325:0.7947719191889441 
1.0 0.0 2:0.8519036229413611 4:0.8519036229413611 7:0.8519036229413611 10:0.8519036229413611 17:0.8519036229413611 18:0.8519036229413611 108:0.8519036229413611 191:0.8519036229413611 251:0.8519036229413611 294:0.8519036229413611 393:0.8519036229413611 1747:0.8519036229413611 1756:0.8519036229413611 
1.0 0.0 5:0.780450531408999 54:0.780450531408999 60:0.780450531408999 80:0.780450531408999 88:0.780450531408999 127:0.780450531408999 137:0.780450531408999 141:0.780450531408999 201:0.780450531408999 226:0.780450531408999 1524:0.780450531408999 1537:0.780450531408999 
1.0 1.0 8:0.7947719191889441 10:0.7947719191889441 54:0.7947719191889441 60:0.7947719191889441 88:0.7947719191889441 108:0.7947719191889441 747:0.7947719191889441 749:0.7947719191889441 1015:0.7947719191889441 1016:0.7947719191889441 1039:0.7947719191889441 1420:0.7947719191889441 1423:0.7947719191889441 1728:0.7947719191889441 1733:0.7947719191889441 
1.0 1.0 5:0.8343367131023226 187:0.8343367131023226 
1.0 1.0 2:0.8099117923325994 1012:0.8099117923325994 1013:0.8099117923325994 1189:0.8099117923325994 1190:0.8099117923325994 1191:0.8099117923325994 
1.0 1.0 8:0.7947719191889441 10:0.7947719191889441 96:0.7947719191889441 142:0.7947719191889441 807:0.7947719191889441 810:0.7947719191889441 1504:0.7947719191889441 1505:0.7947719191889441 1512:0.7947719191889441 
1.0 0.0 2:0.7735741812339244 4:0.7735741812339244 10:0.7735741812339244 11:0.7735741812339244 13:0.7735741812339244 22:0.7735741812339244 25:0.7735741812339244 43:0.7735741812339244 53:0.7735741812339244 77:0.7735741812339244 84:0.7735741812339244 107:0.7735741812339244 133:0.7735741812339244 464:0.7735741812339244 465:0.7735741812339244 527:0.7735741812339244 654:0.7735741812339244 658:0.7735741812339244 659:0.7735741812339244 
1.0 0.0 4:0.8178135579114016 5:0.8178135579114016 40:0.8178135579114016 55:0.8178135579114016 66:0.8178135579114016 90:0.8178135579114016 91:0.8178135579114016 180:0.8178135579114016 207:0.8178135579114016 212:0.8178135579114016 218:0.8178135579114016 388:0.8178135579114016 1642:0.8178135579114016 1647:0.8178135579114016 1648:0.8178135579114016 
1.0 1.0 5:0.8343367131023226 133:0.8343367131023226 192:0.8343367131023226 222:0.8343367131023226 1569:0.8343367131023226 1575:0.8343367131023226 1584:0.8343367131023226 1585:0.8343367131023226 
1.0 1.0 5:0.7477810869136241 39:0.7477810869136241 44:0.7477810869136241 70:0.7477810869136241 655:0.7477810869136241 657:0.7477810869136241 711:0.7477810869136241 1683:0.7477810869136241 1684:0.7477810869136241 
1.0 0.0 2:0.8429829203327237 51:0.8429829203327237 66:0.8429829203327237 91:0.8429829203327237 253:0.8429829203327237 306:0.8429829203327237 1180:0.8429829203327237 1182:0.8429829203327237 1630:0.8429829203327237 
1.0 0.0 2:0.9474310111071966 10:0.9474310111071966 23:0.9474310111071966 136:0.9474310111071966 159:0.9474310111071966 1625:0.9474310111071966 1626:0.9474310111071966 
1.0 1.0 5:0.8178135579114016 28:0.8178135579114016 130:0.8178135579114016 158:0.8178135579114016 287:0.8178135579114016 1004:0.8178135579114016 1005:0.8178135579114016 
1.0 0.0 5:0.766876443209602 10:0.766876443209602 23:0.766876443209602 40:0.766876443209602 44:0.766876443209602 58:0.766876443209602 66:0.766876443209602 83:0.766876443209602 91:0.766876443209602 104:0.766876443209602 108:0.766876443209602 145:0.766876443209602 180:0.766876443209602 210:0.766876443209602 212:0.766876443209602 388:0.766876443209602 1617:0.766876443209602 1667:0.766876443209602 
1.0 1.0 8:0.8706290164229152 874:0.8706290164229152 875:0.8706290164229152 
1.0 0.0 2:1.560901062817998 127:1.560901062817998 318:1.560901062817998 
1.0 1.0 5:0.7735741812339244 44:0.7735741812339244 80:0.7735741812339244 126:0.7735741812339244 
1.0 0.0 2:0.8259512066785663 10:0.8259512066785663 28:0.8259512066785663 54:0.8259512066785663 59:0.8259512066785663 60:0.8259512066785663 88:0.8259512066785663 91:0.8259512066785663 564:0.8259512066785663 572:0.8259512066785663 577:0.8259512066785663 1562:0.8259512066785663 1563:0.8259512066785663 
1.0 1.0 5:0.7735741812339244 51:0.7735741812339244 113:0.7735741812339244 159:0.7735741812339244 187:0.7735741812339244 1362:0.7735741812339244 1363:0.7735741812339244 1374:0.7735741812339244 1506:0.7735741812339244 1507:0.7735741812339244 1508:0.7735741812339244 1509:0.7735741812339244 1514:0.7735741812339244 1516:0.7735741812339244 1517:0.7735741812339244 1519:0.7735741812339244 1521:0.7735741812339244 
1.0 1.0 2:0.8343367131023226 502:0.8343367131023226 505:0.8343367131023226 
1.0 1.0 8:0.8706290164229152 122:0.8706290164229152 128:0.8706290164229152 160:0.8706290164229152 319:0.8706290164229152 756:0.8706290164229152 760:0.8706290164229152 797:0.8706290164229152 799:0.8706290164229152 
1.0 1.0 6:0.7947719191889441 10:0.7947719191889441 124:0.7947719191889441 178:0.7947719191889441 423:0.7947719191889441 427:0.7947719191889441 1250:0.7947719191889441 1253:0.7947719191889441 1254:0.7947719191889441 
1.0 1.0 2:0.8343367131023226 1780:0.8343367131023226 1792:0.8343367131023226 
1.0 1.0 2:0.8022347300438142 319:0.8022347300438142 
1.0 0.0 7:0.9234415221156261 8:0.9234415221156261 10:0.9234415221156261 11:0.9234415221156261 13:0.9234415221156261 17:0.9234415221156261 18:0.9234415221156261 25:0.9234415221156261 43:0.9234415221156261 59:0.9234415221156261 62:0.9234415221156261 858:0.9234415221156261 866:0.9234415221156261 
1.0 1.0 5:0.8022347300438142 70:0.8022347300438142 129:0.8022347300438142 146:0.8022347300438142 151:0.8022347300438142 767:0.8022347300438142 768:0.8022347300438142 775:0.8022347300438142 
1.0 0.0 2:1.3398697853206516 57:1.3398697853206516 61:1.3398697853206516 411:1.3398697853206516 412:1.3398697853206516 1388:1.3398697853206516 
1.0 0.0 2:1.7609338893865119 161:1.7609338893865119 
1.0 1.0 2:0.7875135761102672 207:0.7875135761102672 649:0.7875135761102672 650:0.7875135761102672 651:0.7875135761102672 1259:0.7875135761102672 1260:0.7875135761102672 
1.0 1.0 2:0.7477810869136241 70:0.7477810869136241 135:0.7477810869136241 159:0.7477810869136241 
1.0 1.0 2:0.7539868454941039 21:0.7539868454941039 63:0.7539868454941039 64:0.7539868454941039 71:0.7539868454941039 80:0.7539868454941039 226:0.7539868454941039 
1.0 1.0 2:0.7244071293737541 27:0.7244071293737541 39:0.7244071293737541 90:0.7244071293737541 258:0.7244071293737541 319:0.7244071293737541 
1.0 1.0 5:0.7735741812339244 44:0.7735741812339244 83:0.7735741812339244 1228:0.7735741812339244 1231:0.7735741812339244 1667:0.7735741812339244 
1.0 0.0 2:0.8343367131023226 58:0.8343367131023226 106:0.8343367131023226 119:0.8343367131023226 145:0.8343367131023226 198:0.8343367131023226 284:0.8343367131023226 331:0.8343367131023226 1763:0.8343367131023226 1772:0.8343367131023226 
1.0 1.0 8:0.935205582646157 54:0.935205582646157 57:0.935205582646157 61:0.935205582646157 78:0.935205582646157 365:0.935205582646157 819:0.935205582646157 821:0.935205582646157 1378:0.935205582646157 1523:0.935205582646157 1545:0.935205582646157 
1.0 0.9989168925640182 2:0.8706290164229152 11:0.8706290164229152 47:0.8706290164229152 
1.0 1.0 29:0.8804669446932559 1265:0.8804669446932559 1267:0.8804669446932559 
1.0 1.0 8:0.8178135579114016 10:0.8178135579114016 22:0.8178135579114016 27:0.8178135579114016 28:0.8178135579114016 123:0.8178135579114016 147:0.8178135579114016 195:0.8178135579114016 820:0.8178135579114016 830:0.8178135579114016 836:0.8178135579114016 847:0.8178135579114016 
1.0 0.0 2:0.8178135579114016 11:0.8178135579114016 13:0.8178135579114016 54:0.8178135579114016 59:0.8178135579114016 60:0.8178135579114016 88:0.8178135579114016 321:0.8178135579114016 488:0.8178135579114016 561:0.8178135579114016 1544:0.8178135579114016 
1.0 1.0 6:0.9234415221156261 7:0.9234415221156261 116:0.9234415221156261 129:0.9234415221156261 1446:0.9234415221156261 1447:0.9234415221156261 1448:0.9234415221156261 
1.0 1.0 5:0.8804669446932559 10:0.8804669446932559 183:0.8804669446932559 368:0.8804669446932559 1155:0.8804669446932559 1160:0.8804669446932559 1574:0.8804669446932559 1587:0.8804669446932559 
1.0 0.48819212869347933 7:0.8022347300438142 10:0.8022347300438142 29:0.8022347300438142 71:0.8022347300438142 102:0.8022347300438142 103:0.8022347300438142 129:0.8022347300438142 136:0.8022347300438142 192:0.8022347300438142 235:0.8022347300438142 330:0.8022347300438142 922:0.8022347300438142 924:0.8022347300438142 
1.0 1.0 5:1.0662984227486692 68:1.0662984227486692 92:1.0662984227486692 122:1.0662984227486692 
1.0 1.0 3:0.8178135579114016 8:0.8178135579114016 9:0.8178135579114016 91:0.8178135579114016 117:0.8178135579114016 330:0.8178135579114016 726:0.8178135579114016 909:0.8178135579114016 910:0.8178135579114016 1268:0.8178135579114016 1269:0.8178135579114016 1270:0.8178135579114016 
1.0 1.0 5:0.9872005121364871 21:0.9872005121364871 63:0.9872005121364871 64:0.9872005121364871 71:0.9872005121364871 136:0.9872005121364871 
1.0 1.0 2:0.7539868454941039 4:0.7539868454941039 205:0.7539868454941039 693:0.7539868454941039 694:0.7539868454941039 702:0.7539868454941039 711:0.7539868454941039 1247:0.7539868454941039 1248:0.7539868454941039 
1.0 1.0 8:1.1921578787834162 756:1.1921578787834162 763:1.1921578787834162 904:1.1921578787834162 905:1.1921578787834162 906:1.1921578787834162 1239:1.1921578787834162 1240:1.1921578787834162 1270:1.1921578787834162 1464:1.1921578787834162 1474:1.1921578787834162 
1.0 0.0 2:0.7603497164907803 10:0.7603497164907803 68:0.7603497164907803 
1.0 1.0 8:0.8259512066785663 81:0.8259512066785663 856:0.8259512066785663 863:0.8259512066785663 1039:0.8259512066785663 1762:0.8259512066785663 1765:0.8259512066785663 1793:0.8259512066785663 1796:0.8259512066785663 
1.0 0.0 2:0.780450531408999 4:0.780450531408999 11:0.780450531408999 13:0.780450531408999 25:0.780450531408999 43:0.780450531408999 71:0.780450531408999 106:0.780450531408999 144:0.780450531408999 161:0.780450531408999 218:0.780450531408999 292:0.780450531408999 
1.0 1.0 8:0.766876443209602 157:0.766876443209602 491:0.766876443209602 499:0.766876443209602 515:0.766876443209602 522:0.766876443209602 826:0.766876443209602 827:0.766876443209602 
1.0 1.0 2:1.1037237262798956 57:1.1037237262798956 61:1.1037237262798956 129:1.1037237262798956 1388:1.1037237262798956 
1.0 1.0 2:0.7477810869136241 4:0.7477810869136241 169:0.7477810869136241 886:0.7477810869136241 888:0.7477810869136241 1372:0.7477810869136241 1564:0.7477810869136241 
1.0 1.0 8:0.766876443209602 10:0.766876443209602 108:0.766876443209602 143:0.766876443209602 183:0.766876443209602 643:0.766876443209602 783:0.766876443209602 784:0.766876443209602 877:0.766876443209602 883:0.766876443209602 
1.0 1.0 6:1.2177986160118555 92:1.2177986160118555 1006:1.2177986160118555 1011:1.2177986160118555 
1.0 1.0 5:1.0016129608064974 
1.0 1.0 6:0.8343367131023226 81:0.8343367131023226 490:0.8343367131023226 492:0.8343367131023226 1188:0.8343367131023226 1205:0.8343367131023226 1209:0.8343367131023226 
1.0 1.0 5:0.8804669446932559 57:0.8804669446932559 61:0.8804669446932559 152:0.8804669446932559 154:0.8804669446932559 192:0.8804669446932559 209:0.8804669446932559 1325:0.8804669446932559 
1.0 0.0 4:0.9474310111071966 10:0.9474310111071966 29:0.9474310111071966 136:0.9474310111071966 292:0.9474310111071966 656:0.9474310111071966 666:0.9474310111071966 672:0.9474310111071966 682:0.9474310111071966 711:0.9474310111071966 1612:0.9474310111071966 1625:0.9474310111071966 
1.0 1.0 2:1.0324390083482078 676:1.0324390083482078 677:1.0324390083482078 1251:1.0324390083482078 1258:1.0324390083482078 
1.0 1.0 7:0.8022347300438142 10:0.8022347300438142 29:0.8022347300438142 102:0.8022347300438142 103:0.8022347300438142 
1.0 1.0 7:1.0166756550624372 8:1.0166756550624372 62:1.0166756550624372 102:1.0166756550624372 103:1.0166756550624372 133:1.0166756550624372 136:1.0166756550624372 211:1.0166756550624372 848:1.0166756550624372 868:1.0166756550624372 
1.0 0.0 2:0.8259512066785663 7:0.8259512066785663 10:0.8259512066785663 17:0.8259512066785663 18:0.8259512066785663 151:0.8259512066785663 454:0.8259512066785663 457:0.8259512066785663 459:0.8259512066785663 
1.0 1.0 5:0.8259512066785663 120:0.8259512066785663 161:0.8259512066785663 167:0.8259512066785663 253:0.8259512066785663 634:0.8259512066785663 1066:0.8259512066785663 1078:0.8259512066785663 1285:0.8259512066785663 1287:0.8259512066785663 
1.0 1.0 5:0.8178135579114016 57:0.8178135579114016 61:0.8178135579114016 91:0.8178135579114016 770:0.8178135579114016 771:0.8178135579114016 772:0.8178135579114016 900:0.8178135579114016 901:0.8178135579114016 903:0.8178135579114016 1324:0.8178135579114016 
1.0 0.0 2:0.9121105221687505 40:0.9121105221687505 54:0.9121105221687505 58:0.9121105221687505 59:0.9121105221687505 180:0.9121105221687505 388:0.9121105221687505 1531:0.9121105221687505 1543:0.9121105221687505 1707:0.9121105221687505 1712:0.9121105221687505 
1.0 0.0 5:0.8099117923325994 7:0.8099117923325994 10:0.8099117923325994 28:0.8099117923325994 47:0.8099117923325994 80:0.8099117923325994 90:0.8099117923325994 235:0.8099117923325994 358:0.8099117923325994 367:0.8099117923325994 369:0.8099117923325994 500:0.8099117923325994 504:0.8099117923325994 
1.0 1.0 2:0.7947719191889441 29:0.7947719191889441 60:0.7947719191889441 311:0.7947719191889441 
1.0 1.0 10:0.8259512066785663 29:0.8259512066785663 109:0.8259512066785663 
1.0 1.0 5:1.4600892479290646 331:1.4600892479290646 1315:1.4600892479290646 1322:1.4600892479290646 1326:1.4600892479290646 
1.0 0.0 2:0.8804669446932559 54:0.8804669446932559 58:0.8804669446932559 60:0.8804669446932559 88:0.8804669446932559 1557:0.8804669446932559 1560:0.8804669446932559 
1.0 1.0 23:1.1037237262798956 29:1.1037237262798956 59:1.1037237262798956 144:1.1037237262798956 
1.0 0.0 5:1.0016129608064974 7:1.0016129608064974 10:1.0016129608064974 102:1.0016129608064974 103:1.0016129608064974 122:1.0016129608064974 128:1.0016129608064974 196:1.0016129608064974 253:1.0016129608064974 
1.0 1.0 8:1.0489590814413852 11:1.0489590814413852 13:1.0489590814413852 23:1.0489590814413852 54:1.0489590814413852 55:1.0489590814413852 59:1.0489590814413852 77:1.0489590814413852 107:1.0489590814413852 125:1.0489590814413852 199:1.0489590814413852 789:1.0489590814413852 795:1.0489590814413852 1436:1.0489590814413852 1437:1.0489590814413852 
1.0 0.6214925560269607 5:0.7244071293737541 40:0.7244071293737541 47:0.7244071293737541 122:0.7244071293737541 128:0.7244071293737541 164:0.7244071293737541 196:0.7244071293737541 237:0.7244071293737541 284:0.7244071293737541 323:0.7244071293737541 418:0.7244071293737541 550:0.7244071293737541 551:0.7244071293737541 554:0.7244071293737541 940:0.7244071293737541 941:0.7244071293737541 1593:0.7244071293737541 1594:0.7244071293737541 
1.0 1.0 5:0.7417260796744153 10:0.7417260796744153 163:0.7417260796744153 196:0.7417260796744153 297:0.7417260796744153 528:0.7417260796744153 530:0.7417260796744153 534:0.7417260796744153 1610:0.7417260796744153 1618:0.7417260796744153 1745:0.7417260796744153 1758:0.7417260796744153 
1.0 1.0 4:0.7735741812339244 8:0.7735741812339244 120:0.7735741812339244 246:0.7735741812339244 284:0.7735741812339244 328:0.7735741812339244 394:0.7735741812339244 395:0.7735741812339244 403:0.7735741812339244 817:0.7735741812339244 818:0.7735741812339244 1487:0.7735741812339244 1488:0.7735741812339244 
1.0 1.0 8:0.7947719191889441 10:0.7947719191889441 159:0.7947719191889441 850:0.7947719191889441 851:0.7947719191889441 911:0.7947719191889441 1054:0.7947719191889441 
1.0 0.0 2:0.8519036229413611 10:0.8519036229413611 169:0.8519036229413611 294:0.8519036229413611 
1.0 1.0 5:0.8343367131023226 1085:0.8343367131023226 1086:0.8343367131023226 1087:0.8343367131023226 
1.0 1.0 1:0.7539868454941039 4:0.7539868454941039 7:0.7539868454941039 8:0.7539868454941039 10:0.7539868454941039 11:0.7539868454941039 13:0.7539868454941039 17:0.7539868454941039 18:0.7539868454941039 19:0.7539868454941039 21:0.7539868454941039 25:0.7539868454941039 43:0.7539868454941039 55:0.7539868454941039 63:0.7539868454941039 64:0.7539868454941039 77:0.7539868454941039 84:0.7539868454941039 107:0.7539868454941039 265:0.7539868454941039 769:0.7539868454941039 
1.0 1.0 6:0.8429829203327237 7:0.8429829203327237 10:0.8429829203327237 39:0.8429829203327237 116:0.8429829203327237 1089:0.8429829203327237 1090:0.8429829203327237 1098:0.8429829203327237 
